svm_type c_svc
kernel_type linear
nr_class 3
total_sv 174
rho 3.12695 9.04419 1.57556
label 1 2 3
probA -0.815317 -1.62682 -1.17793
probB -0.378597 0.0433693 0.452556
nr_sv 64 52 58
SV
0 5.891504073756125e-05 1:0.08839779 2:0.03314917 3:0.7152831 4:-0.00169332 5:0.8676819 6:0.420877 7:0.2761527 8:0.5328982 9:1.127198 10:4.350477 11:0.2582288 12:0.6301907 13:1.034006 14:0.371962 15:0.403815 16:0.775777 17:0.09500409 18:2.281495 19:2.186491 20:0.01657459 21:0.005524862 22:0.2044199 23:0.005524862 24:-27.3734 25:0.06913533 26:-33.59558 27:16.85083 28:446.4038 29:21.43484 30:-0.6705433 31:2.963565 32:-38.27914 33:-24.67556 34:-13.16812 35:13.60358 36:11.50744 37:25.11102 38:-78.58234 39:8.817427 40:87.39977 41:0.2375691 42:0.05524862 43:0.6132597 44:0.7845304 45:-11.33464 46:-0.05522168 47:-6.364687 48:14.16863 49:300.5751 50:17.57555 51:-0.6882831 52:3.081691 53:-21.45113 54:-10.49612 55:3.705224 56:10.95501 57:14.20134 58:25.15636 59:-58.05811 60:17.92752 61:75.98562 62:0.359116 63:0.06629834 64:0.3425414 65:0.8232044 66:-3.226965 67:-0.09413948 68:5.245588 69:11.95875 70:231.0279 71:15.97566 72:-0.04338545 73:2.721412 74:-13.67616 75:-2.862264 76:7.027085 77:10.8139 78:9.889349 79:20.70325 80:-36.14976 81:32.29925 82:68.44901 83:0.09392265 84:0.03867403 85:0.3922652 86:0.4917127 87:3.785384 88:-0.04000301 89:7.385655 90:11.93117 91:230.2577 92:15.31752 93:0.05129514 94:2.966898 95:-6.469968 96:4.86563 97:12.14358 98:11.3356 99:7.277948 100:18.61355 101:-28.3885 102:40.30167 103:68.69017 104:0.09392265 105:0.0441989 106:0.4585635 107:0.7845304 108:-5.540652 109:-0.01006666 110:-4.634653 111:8.698455 112:119.6547 113:10.95132 114:-0.2076108 115:2.685738 116:-13.3402 117:-3.665104 118:0.9907665 119:9.6751 120:4.65587 121:14.33097 122:-30.61103 123:16.80631 124:47.41735 125:0.1049724 126:0.03314917 127:0.2928177 128:0.7071823 129:-3.272582 130:-0.02688795 131:-0.8526667 132:13.55775 133:278.1784 134:16.73774 135:-0.7861487 136:2.815861 137:-12.96998 138:0.5147347 139:10.20552 140:13.48471 141:9.690786 142:23.1755 143:-46.47584 144:22.50352 145:68.97937 146:0.320442 147:0.03867403 148:0.2430939 149:0.1712707 150:-16.90327 151:0.004488635 152:-17.30725 153:13.23384 154:254.2671 155:15.94748 156:-0.33742 157:2.529501 158:-28.13491 159:-16.21485 160:-3.525198 161:11.92006 162:12.68965 163:24.60971 164:-56.3057 165:10.76387 166:67.06956 167:0.2320442 168:0.02209945 169:0.121547 170:0.3480663 171:-3.522011 172:-0.06486657 173:2.31598 174:8.337311 175:112.605 176:11.13966 177:-0.07858084 178:2.773685 179:-10.33828 180:-3.615189 181:4.76394 182:6.723091 183:8.379129 184:15.10222 185:-30.61502 186:18.68501 187:49.30003 188:0.1104972 189:0.01104972 190:0.8950276 191:0.4033149 192:-8.094764 193:0.03083828 194:-10.87021 195:13.95606 196:282.1561 197:16.87461 198:-0.3504051 199:2.481096 200:-21.36741 201:-3.941157 202:3.175165 203:17.42625 204:7.116323 205:24.54257 206:-45.68908 207:23.57059 208:69.25967 209:0.121547 210:0.04972376 211:0.4861878 212:0.2983426 213:3.776199 214:0.0002325592 215:3.755269 216:15.09317 217:388.4336 218:19.70872 219:-0.8802636 220:3.728384 221:-6.154108 222:6.79853 223:16.74904 224:12.95264 225:9.950509 226:22.90315 227:-56.50257 228:33.27929 229:89.78186 230:0.3425414 231:0.1325967 232:0.4972376 233:0.7292818 234:-7.196424 235:0.03308408 236:-10.17399 237:8.351136 238:112.6576 239:10.75387 240:-0.3674792 241:3.022136 242:-13.45676 243:-6.677696 244:0.9757223 245:6.779065 246:7.653419 247:14.43248 248:-33.78945 249:14.94947 250:48.73891 251:0.2044199 252:0.03314917 253:0.6132597 254:0.6850829 255:-0.7568366 256:0.000120832 257:-0.7677115 258:9.105258 259:121.7203 260:11.0327 261:-0.3844842 262:2.536131 263:-8.142372 264:0.5376061 265:7.336782 266:8.679978 267:6.799175 268:15.47915 269:-26.23096 270:21.57159 271:47.80255 272:0.160221 273:0.02762431 274:0.7458563 275:0.4088398 276:-5.059711 277:0.0005350308 278:-5.107863 279:11.40589 280:192.7612 281:13.88387 282:-0.4319237 283:2.656624 284:-14.96571 285:-1.685686 286:4.43055 287:13.28003 288:6.116237 289:19.39626 290:-37.43017 291:26.7373 292:64.16747 293:0.05524862 294:0.01657459 295:0.8950276 296:0.3038674 297:2.664609 298:0.04589755 299:-1.466171 300:8.591203 301:117.3379 302:11.09454 303:-0.7433029 304:3.164821 305:-3.553159 306:5.185812 307:10.40638 308:8.738971 309:5.220571 310:13.95954 311:-26.28513 312:21.73062 313:48.01575 314:0.1546961 315:0.01657459 316:0.9668508 317:0.7071823 318:-4.398952 319:0.01246829 320:-5.521099 321:6.886864 322:90.31986 323:9.525978 324:-1.096326 325:5.056778 326:-8.729772 327:-2.965984 328:0.8638875 329:5.763787 330:3.829872 331:9.593659 332:-35.31519 333:11.59236 334:46.90754 335:0.2099448 336:0.03314917 337:0.08287293 338:0.02762431 339:-3.356073 340:-0.001816687 341:-3.192571 342:3.363749 343:14.72446 344:3.83842 345:-0.6356483 346:2.142958 347:-6.31511 348:-1.751072 349:-0.2577479 350:4.564038 351:1.493324 352:6.057362 353:-11.55483 354:1.673248 355:13.22808 356:0.4585635 357:0.08287293 358:0.08839779 359:0.4475138 360:-2.806007 361:0.00369501 362:-3.138558 363:3.36205 364:16.46874 365:4.062759 366:-0.5543828 367:2.556604 368:-5.208877 369:-2.132289 370:0.32743 371:3.076587 372:2.459719 373:5.536306 374:-11.95071 375:4.049526 376:16.00024 377:0.2596685 378:0.05524862 379:0.2044199 380:0.01657459 381:-3.448192 382:0.008158042 383:-4.182415 384:2.935312 385:14.5736 386:3.841262 387:-0.0377134 388:2.751477 389:-5.123115 390:-3.765007 391:-1.222096 392:1.358108 393:2.542912 394:3.901019 395:-11.35949 396:4.851883 397:16.21137 398:0.160221 399:0.02762431 400:0.2044199 401:0.02762431 402:-2.708764 403:0.01761835 404:-4.294416 405:2.603704 406:11.76859 407:3.551901 408:-0.2732569 409:3.078902 410:-4.602594 411:-2.521082 412:-0.6983023 413:2.081512 414:1.82278 415:3.904292 416:-10.71995 417:4.96939 418:15.68934 419:0.1325967 420:0.03867403 421:0.198895 422:0.01104972 423:-1.97845 424:0.01601334 425:-3.41965 426:2.631452 427:11.46668 428:3.488084 429:-0.6126004 430:3.056377 431:-3.915354 432:-1.409352 433:0.4577524 434:2.506002 435:1.867105 436:4.373106 437:-10.29664 438:4.426691 439:14.72333 440:0.1878453 441:0.0441989 442:0.801105 443:0.01104972 444:-1.796139 445:0.0158023 446:-3.218346 447:2.804959 448:10.92865 449:3.407399 450:-0.4008205 451:2.328376 452:-4.215542 453:-1.259366 454:0.7983307 455:2.956176 456:2.057697 457:5.013873 458:-9.166824 459:3.779829 460:12.94665 461:0.2707182 462:0.07734807 463:0.7900553 464:0.005524862 465:-1.513633 466:0.0129718 467:-2.681095 468:2.585352 469:9.586797 470:3.169569 471:-0.2940688 472:2.4886 473:-3.627704 474:-1.117131 475:0.645916 476:2.510573 477:1.763047 478:4.27362 479:-8.210061 480:5.00594 481:13.216 482:0.1381215 483:0.03867403 484:0.7790055 485:0.005524862 486:-1.266963 487:0.009541762 488:-2.125722 489:2.55267 490:9.0576 491:3.050599 492:-0.2804044 493:2.330023 494:-3.441317 495:-0.8782292 496:1.146823 497:2.563088 498:2.025052 499:4.58814 500:-7.612831 501:4.811062 502:12.42389 503:0.1325967 504:0.0441989 505:0.801105 506:0.005524862 507:0.3381497 508:0.001587775 509:0.1952499 510:0.1287448 511:0.025654 512:0.1803785 513:1.17451 514:3.757036 515:0.1911656 516:0.2978567 517:0.4169077 518:0.1066911 519:0.119051 520:0.2257421 521:0.1242388 522:0.8416189 523:0.7173801 524:0.08287293 525:0.0441989 526:0.4309392 527:0.3370166 528:0.6152142 529:0.001251678 530:0.5025631 531:0.1782555 532:0.04453893 533:0.2209435 534:0.3215475 535:2.223028 536:0.4434927 537:0.5983772 538:0.7799433 539:0.1548845 540:0.1815661 541:0.3364506 542:0.2586014 543:1.078977 544:0.8203753 545:0.160221 546:0.06077348 547:0.7845304 548:0.6187845 549:1.02449 550:0.0001680486 551:1.009366 552:0.1427316 553:0.03259826 554:0.1807633 555:0.7076804 556:3.627139 557:0.8864082 558:1.020473 559:1.117491 560:0.1340649 561:0.09701812 562:0.231083 563:0.7078305 564:1.565687 565:0.8578567 566:0.05524862 567:0.02762431 568:0.7845304 569:0.6187845 570:1.24046 571:0.0001721033 572:1.224971 573:0.1585987 574:0.03719936 575:0.1930809 576:0.1220299 577:2.627979 578:1.113209 579:1.242906 580:1.384517 581:0.1296971 582:0.141611 583:0.2713081 584:0.8810406 585:1.701573 586:0.8205327 587:0.06077348 588:0.03867403 589:0.3425414 590:0.6022099 591:1.636957 592:-0.0001351351 593:1.649119 594:0.1256503 595:0.02237894 596:0.1497625 597:0.3309697 598:2.463917 599:1.515037 600:1.627376 601:1.734909 602:0.1123391 603:0.1075331 604:0.2198722 605:1.363394 606:1.983522 607:0.620128 608:0.07734807 609:0.02762431 610:0.7734807 611:0.6574585 612:1.817863 613:-0.0001393695 614:1.830407 615:0.1232326 616:0.02120182 617:0.1457904 618:-0.2295876 619:1.999513 620:1.68364 621:1.842732 622:1.931547 623:0.1590919 624:0.08881497 625:0.2479069 626:1.555303 627:2.091493 628:0.5361899 629:0.1160221 630:0.03867403 631:0.5690608 632:0.1933702 633:2.195585 634:7.186004e-05 635:2.189118 636:0.06014005 637:0.005667071 638:0.07537353 639:-0.6921002 640:3.310019 641:2.155628 642:2.205719 643:2.253802 644:0.05009103 645:0.04808259 646:0.09817362 647:1.985756 648:2.323092 649:0.3373353 650:0.2983426 651:0.03867403 652:0.5690608 653:0.09392265 654:2.275763 655:0.0001197556 656:2.264985 657:0.04541237 658:0.003265327 659:0.05748458 660:-1.108011 661:4.604431 662:2.246227 663:2.282601 664:2.319704 665:0.03637362 666:0.03710365 667:0.07347727 668:2.086812 669:2.359047 670:0.2722352 671:0.4751381 672:0.1436464 673:0.7237569 674:1 675:170.0879 676:0.3944158 677:134.5905 678:45.84796 679:3606.988 680:63.49549 681:-1.186182 682:4.285578 683:143.6473 684:180.5434 685:211.4245 686:36.89616 687:30.88106 688:67.77722 689:1 690:251.2914 691:251.2914 692:0.39779 693:0.1436464 694:0.7016575 695:0.2320442 696:0.5486087 697:0.0005323999 698:0.5006927 699:0.2019895 700:0.0542304 701:0.2345298 702:-0.8305469 703:2.384767 704:0.3774174 705:0.6563555 706:0.743543 707:0.2789381 708:0.08718753 709:0.3661257 710:1 711:0.8041158 712:0.8041158 713:0.5580111 714:0.320442 715:0.07734807 716:0.1160221 717:0.0003047344 718:-0.0002164286 719:0.01978331 720:0.1108987 721:0.02515236 722:0.1589976 723:1.078314 724:6.348592 725:-0.0883743 726:-0.0076214 727:0.05581676 728:0.0807529 729:0.06343816 730:0.1441911 731:-0.3219708 732:0.5484912 733:0.8704621 734:0.01657459 735:0.005524862 736:0.05524862 737:0.2320442 738:0.1262325 739:-0.01468718 740:1.448079 741:4.018284 742:30.785 743:5.601241 744:0.2482816 745:4.304206 746:-3.228539 747:0.06060867 748:2.613113 749:3.289147 750:2.552505 751:5.841652 752:-15.05315 753:15.81912 754:30.87227 755:0.06629834 756:0.02209945 757:0.8453039 758:0.5138122 759:0.01739862 760:-0.002237956 761:0.2188147 762:2.618707 763:11.16887 764:3.344031 765:0.007712392 766:3.024081 767:-1.83116 768:-0.353569 769:2.086118 770:1.477591 771:2.439687 772:3.917278 773:-7.861816 774:7.057987 775:14.9198 776:0.1491713 777:0.04972376 778:0.1270718 779:0.1823204 780:-0.1268827 781:-0.001511596 782:0.009160959 783:2.988815 784:15.83677 785:3.980328 786:-0.2819301 787:4.135437 788:-2.370368 789:-0.2154984 790:2.294088 791:2.154869 792:2.509587 793:4.664456 794:-11.13847 795:8.452001 796:19.59047 797:0.07734807 798:0.01104972 799:0.5690608 800:0.4751381 801:0.03620996 802:0.001786273 803:-0.1245546 804:2.997248 805:13.41459 806:3.663783 807:-0.2598094 808:2.45589 809:-2.440073 810:0.07784919 811:3.014175 812:2.517922 813:2.936326 814:5.454248 815:-7.978814 816:7.462772 817:15.44159 818:0.2154696 819:0.02762431 820:0.2928177 821:0.4696133 822:0.008128113 823:0.002476207 824:-0.2147305 825:2.681083 826:11.78124 827:3.434818 828:-0.2461068 829:3.183449 830:-2.358343 831:0.08155377 832:2.200268 833:2.439896 834:2.118714 835:4.55861 836:-8.583528 837:7.466217 838:16.04974 839:0.2099448 840:0.03867403 841:0.1270718 842:0.6740332 843:-0.1106466 844:0.0006566281 845:-0.1697431 846:3.491128 847:18.99581 848:4.358554 849:-0.1753153 850:2.588513 851:-3.059411 852:0.1172246 853:2.892706 854:3.176635 855:2.775481 856:5.952116 857:-10.11643 858:8.55555 859:18.67198 860:0.1823204 861:0.03867403 862:0.1823204 863:0.4585635 864:-0.1516274 865:0.001948878 866:-0.3270264 867:3.384677 868:18.3556 869:4.285553 870:0.2541889 871:3.097945 872:-3.22323 873:-0.4201437 874:2.703215 875:2.803087 876:3.123359 877:5.926445 878:-8.755974 879:10.14483 880:18.9008 881:0.1160221 882:0.02209945 883:0.6353591 884:0.3314917 885:-0.1095508 886:-0.002344168 887:0.1014243 888:2.941782 889:13.08127 890:3.618877 891:0.03421209 892:2.367781 893:-2.671111 894:0.04170971 895:2.395939 896:2.712821 897:2.354229 898:5.06705 899:-7.235032 900:7.328463 901:14.56349 902:0.1049724 903:0.02209945 904:0.3259669 905:0.2872928 906:0.1132156 907:0.007078271 908:-0.5238288 909:3.406398 910:21.62357 911:4.664798 912:0.05779133 913:3.904807 914:-2.176795 915:0.2271298 916:2.617425 917:2.403925 918:2.390295 919:4.79422 920:-10.99374 921:12.52722 922:23.52097 923:0.06629834 924:0.02762431 925:0.6243094 926:0.281768 927:0.07760761 928:0.003307235 929:-0.2200435 930:3.830453 931:24.70559 932:4.973475 933:0.1731318 934:3.687759 935:-2.703908 936:0.04707794 937:3.150677 938:2.750986 939:3.103599 940:5.854586 941:-11.9595 942:12.35385 943:24.31335 944:0.02762431 945:0.005524862 946:0.7403315 947:0.718232 948:-0.1034741 949:0.001070649 950:-0.1998325 951:2.669784 952:11.13792 953:3.337821 954:0.3058894 955:2.998162 956:-2.453742 957:-0.2695307 958:2.362881 959:2.184211 960:2.632412 961:4.816623 962:-6.791541 963:7.800061 964:14.5916 965:0.03867403 966:0.01104972 967:0.7403315 968:0.6298342 969:0.08352737 970:0.004689388 971:-0.3385175 972:2.481685 973:10.04436 974:3.178741 975:-0.6701319 976:4.517657 977:-1.758616 978:0.1081602 979:2.467743 980:1.866776 981:2.359583 982:4.226359 983:-9.372463 984:6.000208 985:15.37267 986:0.2928177 987:0.0441989 988:0.7348067 989:0.2044199 990:-0.0234254 991:0.00389533 992:-0.3740051 993:3.156255 994:17.00469 995:4.128694 996:0.5142857 997:3.537889 998:-2.265013 999:-0.610447 1000:2.34377 1001:1.654565 1002:2.954217 1003:4.608782 1004:-8.216019 1005:11.53272 1006:19.74874 1007:0.0441989 1008:0.02209945 1009:0.320442 1010:0.2928177 1011:0.01278725 1012:0.001571236 1013:-0.128624 1014:2.680218 1015:11.58677 1016:3.404925 1017:0.172176 1018:3.284732 1019:-2.070704 1020:-0.1559549 1021:2.27178 1022:1.914749 1023:2.427735 1024:4.342484 1025:-7.73599 1026:8.612807 1027:16.3488 1028:0.0441989 1029:0.01104972 1030:0.3093923 1031:0.6740332 1032:0.02056104 1033:0.0020122 1034:-0.160537 1035:1.924731 1036:6.102626 1037:2.472586 1038:-0.500807 1039:3.667323 1040:-1.59057 1041:0.119814 1042:1.813653 1043:1.710384 1044:1.693839 1045:3.404222 1046:-7.121276 1047:4.747843 1048:11.86912 1049:0.1657459 1050:0.02209945 1051:0.05524862 1052:0.2320442 1053:0.01363809 1054:-0.002499581 1055:0.2386003 1056:0.6599727 1057:0.8282283 1058:0.9193938 1059:0.4607182 1060:3.680823 1061:-0.4640088 1062:-0.04613812 1063:0.3770069 1064:0.4178707 1065:0.423145 1066:0.8410157 1067:-1.962983 1068:2.499677 1069:4.46266 1070:0.09392265 1071:0.03314917 1072:0.4585635 1073:0.2265193 1074:0.02394314 1075:-0.002430155 1076:0.2426571 1077:0.726889 1078:0.9799621 1079:0.9980404 1080:0.5304126 1081:3.616232 1082:-0.5884389 1083:-0.0496798 1084:0.5367082 1085:0.5387591 1086:0.5863881 1087:1.125147 1088:-2.13845 1089:2.779435 1090:4.917884 1091:0.07734807 1092:0.03314917 1093:0.05524862 1094:0.2320442 1095:0.01469486 1096:-0.00238515 1097:0.2293583 1098:0.7183888 1099:0.9130648 1100:0.9636366 1101:0.2461402 1102:3.355556 1103:-0.6147975 1104:-0.04589295 1105:0.4808652 1106:0.5689045 1107:0.5267581 1108:1.095663 1109:-2.31619 1110:2.343871 1111:4.660061 1112:0.1546961 1113:0.0441989 1114:0.05524862 1115:0.2320442 1116:0.02847213 1117:-0.001942438 1118:0.2032915 1119:0.647114 1120:0.791649 1121:0.8955163 1122:-0.06261962 1123:4.142803 1124:-0.4325992 1125:0.02917118 1126:0.4495935 1127:0.4617704 1128:0.4204223 1129:0.8821926 1130:-2.364208 1131:2.300907 1132:4.665114 1133:0.09944751 1134:0.03314917 1135:0.05524862 1136:0.2320442 1137:0.03353194 1138:-0.001876922 1139:0.2024549 1140:0.6683714 1141:0.8444973 1142:0.9241832 1143:0.2279587 1144:4.226397 1145:-0.4672692 1146:-0.003775254 1147:0.5246658 1148:0.463494 1149:0.5284411 1150:0.9919351 1151:-2.262584 1152:2.654805 1153:4.91739 1154:0.06629834 1155:0.01657459 1156:0.05524862 1157:0.2320442 1158:0.02275773 1159:-0.001943634 1160:0.1976848 1161:0.6623902 1162:0.7853899 1163:0.8920219 1164:0.1740446 1165:3.925862 1166:-0.4574781 1167:0.007286453 1168:0.5255531 1169:0.4647645 1170:0.5182667 1171:0.9830312 1172:-2.278 1173:2.366078 1174:4.644078 1175:0.06629834 1176:0.02762431 1177:0.05524862 1178:0.2320442 1179:0.02346062 1180:-0.001696364 1181:0.1761334 1182:0.6097944 1183:0.6767582 1184:0.8274142 1185:-0.1481066 1186:4.141782 1187:-0.4464743 1188:0.0737283 1189:0.4826166 1190:0.5202026 1191:0.4088883 1192:0.9290909 1193:-2.295698 1194:2.213104 1195:4.508802 1196:0.0441989 1197:0.01657459 1198:0.5580111 1199:0.5359116 1200:0.00882504 1201:-0.002114896 1202:0.1991657 1203:0.5732203 1204:0.5854562 1205:0.7730892 1206:-0.3050355 1207:4.05687 1208:-0.3817082 1209:0.08533616 1210:0.4673281 1211:0.4670444 1212:0.3819919 1213:0.8490363 1214:-2.155736 1215:1.97051 1216:4.126246 1217:0.06077348 1218:0.01657459 1219:0.7348067 1220:0.5359116 1221:0.001313393 1222:-3.587027e-05 1223:0.004541717 1224:0.02915328 1225:0.001558381 1226:0.0395208 1227:-0.2280246 1228:3.544028 1229:-0.02151815 1230:0.001524167 1231:0.02283859 1232:0.02304231 1233:0.02131442 1234:0.04435673 1235:-0.103226 1236:0.08765076 1237:0.1908768 1238:0.1104972 1239:0.01104972 1240:0.4198895 1241:0.4696133 1242:0.0009336423 1243:7.511851e-05 1244:-0.005827024 1245:0.0371073 1246:0.002500366 1247:0.05015747 1248:0.224449 1249:4.18413 1250:-0.02795487 1251:-0.001549539 1252:0.0297319 1253:0.02640533 1254:0.03128144 1255:0.05768677 1256:-0.1252925 1257:0.1404054 1258:0.2656979 1259:0.04972376 1260:0.01657459 1261:0.7734807 1262:0.8121547 1263:-8.481263e-05 1264:7.665515e-06 1265:-0.000774709 1266:0.02912035 1267:0.001477854 1268:0.03844495 1269:0.006115906 1270:3.610097 1271:-0.02273117 1272:0.0004829884 1273:0.02052488 1274:0.02321416 1275:0.0200419 1276:0.04325606 1277:-0.09942278 1278:0.1032013 1279:0.2026241 1280:0.06077348 1281:0.02209945 1282:0.5082873 1283:0.8453039 1284:-0.001072103 1285:2.58288e-05 1286:-0.003396695 1287:0.03170308 1288:0.001731141 1289:0.04162886 1290:0.4808926 1291:3.883565 1292:-0.02826622 1293:-0.002419257 1294:0.02645299 1295:0.02584696 1296:0.02887225 1297:0.05471921 1298:-0.09338553 1299:0.1090709 1300:0.2024564 1301:0.03314917 1302:0.01104972 1303:0.3314917 1304:0.3038674 1305:-1.572757e-05 1306:3.639685e-05 1307:-0.003291444 1308:0.02699397 1309:0.001311007 1310:0.03625774 1311:0.9157752 1312:6.167361 1313:-0.02522454 1314:-0.000152576 1315:0.02042764 1316:0.02507197 1317:0.02058022 1318:0.04565219 1319:-0.07511965 1320:0.1287435 1321:0.2038632 1322:0.01657459 1323:0.005524862 1324:0.3314917 1325:0.1767956 1326:5.421809e-06 1327:4.593989e-05 1328:-0.004129169 1329:0.02672083 1330:0.00137658 1331:0.03717986 1332:0.3263965 1333:4.497684 1334:-0.01934316 1335:-0.0005266666 1336:0.01617719 1337:0.0188165 1338:0.01670386 1339:0.03552035 1340:-0.09478741 1341:0.1024447 1342:0.1972321 1343:0.04972376 1344:0.01104972 1345:0.2044199 1346:0.1823204 1347:-0.0009839511 1348:-1.180427e-05 1349:7.843314e-05 1350:0.01812232 1351:0.0005798777 1352:0.02408855 1353:-0.1328403 1354:4.256732 1355:-0.01241798 1356:0.0008217335 1357:0.01170511 1358:0.01323972 1359:0.01088338 1360:0.0241231 1361:-0.06379966 1362:0.0639977 1363:0.1277974 1364:0.06077348 1365:0.02209945 1366:0.1104972 1367:0.1823204 1368:-0.0005724788 1369:3.246868e-06 1370:-0.0008646969 1371:0.01274449 1372:0.0002835664 1373:0.01684028 1374:0.2623803 1375:3.537156 1376:-0.01188087 1377:0.0001327038 1378:0.008818316 1379:0.01201358 1380:0.008685612 1381:0.02069919 1382:-0.03686062 1383:0.04623412 1384:0.08309475 1385:0.0441989 1386:0.01657459 1387:0.0718232 1388:0.8453039 1389:0.5829378 1390:-0.04297877 1391:4.451027 1392:3.953739 1393:41.14777 1394:6.796363 1395:2.45774 1396:17.9785 1397:-0.833786 1398:1 1399:0.8256714 1400:0.833786 1401:0.8256714 1402:1.659457 1403:-16.7987 1404:29.14657 1405:45.94527 1406:0.01104972 1407:0.01104972 1408:0.6243094 1409:0.6022099 1410:0.001728475 1411:-0.0001211105 1412:0.01262842 1413:0.04856417 1414:0.004591401 1415:0.06805471 1416:-0.2754179 1417:3.655941 1418:-0.02348282 1419:0.002355372 1420:0.02868875 1421:0.0258382 1422:0.02633337 1423:0.05217157 1424:-0.1803534 1425:0.1611497 1426:0.3415032 1427:0.1546961 1428:0.02762431 1429:0.7843137 1430:0.990196 1431:138.7105 1432:-0.156579 1433:146.6178 1434:45.35571 1435:3268.81 1436:57.35908 1437:0.2479295 1438:2.479899 1439:100.3337 1440:143.5391 1441:169.2906 1442:43.20532 1443:25.7515 1444:68.95682 1445:261.7803 1446:0.1372549 1447:0.05882353 1448:0.5666667 1449:0.5333334 1450:0.02146627 1451:-4.212782e-05 1452:0.02334095 1453:0.01502514 1454:0.0005282249 1455:0.02300919 1456:2.633696 1457:11.20174 1458:0.00774914 1459:0.01601881 1460:0.02669165 1461:0.008269666 1462:0.01067284 1463:0.01894251 1464:0.1173911 1465:0.03333334 1466:0.02222222 1467:0.5714286 1468:0.3333333 1469:0.01588812 1470:-7.626137e-05 1471:0.01905297 1472:0.0102192 1473:0.0001910422 1474:0.01394494 1475:1.757367 1476:6.99174 1477:0.005324693 1478:0.01279316 1479:0.02136847 1480:0.00746847 1481:0.008575309 1482:0.01604378 1483:0.06534958 1484:0.02380952 1485:0.01190476 1486:0.2020202 1487:0.4444444 1488:0.1636498 1489:-0.0002702494 1490:0.176892 1491:0.08418918 1492:0.01305751 1493:0.1145302 1494:1.45809 1495:5.381916 1496:0.08438645 1497:0.1397818 1498:0.2081291 1499:0.05539537 1500:0.06834728 1501:0.1237426 1502:0.5419334 1503:0.05050505 1504:0.02020202 1505:0.2698413 1506:0.7936508 1507:5.392801e-08 1508:-0.08488025 1509:5.305015 1510:21.49139 1511:750.2923 1512:27.5649 1513:-0.2113147 1514:2.821382 1515:-15.02897 1516:0.6062866 1517:16.86921 1518:15.63525 1519:16.26292 1520:31.89817 1521:51.86354 1522:0.1666667 1523:0.03968254 1524:0.5213675 1525:0.5470086 1526:2.636757e-11 1527:-1.44762e-05 1528:0.0008396194 1529:0.006037281 1530:8.505351e-05 1531:0.009235397 1532:0.351357 1533:7.694262 1534:-0.003602228 1535:-0.001145413 1536:0.004069596 1537:0.002456815 1538:0.005215008 1539:0.007671824 1540:0.03236204 1541:0.02564103 1542:0.01709402 1543:0.5309734 1544:0.5575221 1545:1.822259e-12 1546:-1.099666e-05 1547:0.0006158131 1548:0.004368524 1549:3.584989e-05 1550:0.005998212 1551:0.2568078 1552:4.88007 1553:-0.003335624 1554:-0.0005835918 1555:0.00357222 1556:0.002752032 1557:0.004155811 1558:0.006907843 1559:0.01745186 1560:0.02654867 1561:0.01769911 1562:0.1626016 1563:0.1951219 1564:-5.105001e-11 1565:-0.0001044829 1566:0.006373456 1567:0.03890821 1568:0.002636109 1569:0.0514769 1570:0.37888 1571:3.739484 1572:-0.03041968 1573:-0.01141025 1574:0.02597845 1575:0.01900943 1576:0.0373887 1577:0.05639813 1578:0.1423957 1579:0.07317073 1580:0.03252032 1581:11 1582:1.83 
0.0002876956911678957 0 1:0.3167702 2:0.02484472 3:0.7864218 4:-0.002012556 5:0.9474263 6:0.5448544 7:0.4944814 8:0.7093872 9:1.287456 10:4.03022 11:0.2373642 12:0.5831183 13:1.083378 14:0.3457541 15:0.5002599 16:0.846014 17:0.03707227 18:2.851577 19:2.814505 20:0.06832298 21:0.02484472 22:0.2795031 23:0.00621118 24:-28.94997 25:-0.008380199 26:-28.27955 27:20.04072 28:598.7579 29:24.47263 30:-0.3009717 31:2.490017 32:-44.21885 33:-28.1759 34:-5.831991 35:16.04294 36:22.34391 37:38.38686 38:-87.5132 39:14.04836 40:101.5616 41:0.2919255 42:0.06832298 43:0.3850932 44:0.757764 45:-10.61074 46:-0.01129272 47:-9.70732 48:13.66354 49:302.6285 50:17.40414 51:-0.5419724 52:2.961847 53:-21.73697 54:-9.433404 55:1.147624 56:12.30356 57:10.58103 58:22.88459 59:-52.41386 60:18.21034 61:70.62419 62:0.2919255 63:0.1118012 64:0.7267081 65:0.2670808 66:-10.3117 67:0.1053598 68:-18.74048 69:13.21278 70:239.6593 71:16.23689 72:-0.1838494 73:1.935469 74:-22.11861 75:-9.209654 76:3.511896 77:12.90895 78:12.72155 79:25.6305 80:-42.5745 81:16.79329 82:59.36779 83:0.2732919 84:0.0931677 85:0.5838509 86:0.3167702 87:-1.715704 88:0.09859489 89:-9.603295 90:15.89989 91:367.1492 92:19.70143 93:0.0823288 94:2.859487 95:-16.79674 96:0.7883765 97:10.46882 98:17.58512 99:9.680441 100:27.26556 101:-46.55925 102:42.6344 103:89.19365 104:0.1118012 105:0.05590062 106:0.7267081 107:0.2981367 108:-9.497444 109:0.1229435 110:-19.33292 111:10.02716 112:177.5034 113:14.49662 114:-0.7176858 115:3.548347 116:-18.14387 117:-7.563484 118:0.8767686 119:10.58039 120:8.440253 121:19.02064 122:-50.55861 123:18.28377 124:68.84238 125:0.2049689 126:0.01863354 127:0.242236 128:0.5031056 129:-4.138088 130:0.01186045 131:-5.086925 132:16.16642 133:390.4777 134:19.7682 135:-0.3700438 136:2.699413 137:-17.26761 138:-0.5961114 139:10.95807 140:16.6715 141:11.55418 142:28.22568 143:-50.74067 144:38.31604 145:89.05671 146:0.1118012 147:0.02484472 148:0.06832298 149:0.1242236 150:-14.49543 151:0.04985771 152:-18.48405 153:14.65821 154:345.5443 155:18.73269 156:-0.5615643 157:3.267355 158:-25.95608 159:-12.95077 160:-0.4986361 161:13.0053 162:12.45214 163:25.45744 164:-67.11297 165:17.65073 166:84.7637 167:0.3043478 168:0.08074534 169:0.2298137 170:0.4906832 171:-4.561533 172:0.01357189 173:-5.647285 174:10.16332 175:152.1734 176:12.35197 177:-0.2061036 178:2.499075 179:-12.78344 180:-4.332907 181:5.36592 182:8.450535 183:9.698826 184:18.14936 185:-33.07122 186:20.60879 187:53.68 188:0.1552795 189:0.01863354 190:0.8819876 191:0.6645963 192:-6.20295 193:0.003664691 194:-6.496125 195:10.40311 196:173.2836 197:13.16482 198:0.3117434 199:3.344002 200:-16.49232 201:-6.24024 202:2.203862 203:10.25208 204:8.444102 205:18.69618 206:-33.83042 207:30.21701 208:64.04744 209:0.03726708 210:0.01863354 211:0.7888198 212:0.3726708 213:0.02887736 214:0.01691104 215:-1.324006 216:9.446091 217:179.5893 218:13.42412 219:-0.8637705 220:5.264398 221:-4.539972 222:1.200575 223:6.9734 224:5.740547 225:5.772825 226:11.51337 227:-44.12999 228:30.3834 229:74.51339 230:0.1118012 231:0.0310559 232:0.2608696 233:0.136646 234:-4.685363 235:-0.03113373 236:-2.194665 237:8.26823 238:99.29834 239:10.06936 240:-0.402573 241:2.34597 242:-11.70774 243:-3.120666 244:3.582691 245:8.587078 246:6.703357 247:15.29044 248:-27.3795 249:10.76833 250:38.14783 251:0.3043478 252:0.07453416 253:0.3354037 254:0.2173913 255:-5.88906 256:0.0801856 257:-12.30391 258:9.056122 259:120.3957 260:11.58809 261:-0.07250203 262:2.46944 263:-15.46999 264:-5.354765 265:2.77124 266:10.11523 267:8.126006 268:18.24123 269:-31.77491 270:19.47478 271:51.24969 272:0.1180124 273:0.03726708 274:0.9689441 275:0.3540373 276:-8.755408 277:0.1468641 278:-20.50454 279:12.66971 280:250.8754 281:17.24716 282:-0.5473219 283:2.669335 284:-16.67043 285:-6.153658 286:3.654455 287:10.51677 288:9.808113 289:20.32489 290:-46.1576 291:23.54657 292:69.70416 293:0.1925466 294:0.04968944 295:0.2298137 296:0.5776398 297:-2.930775 298:0.01485116 299:-4.118868 300:7.731013 301:106.908 302:10.36265 303:-0.08122455 304:4.024105 305:-7.908947 306:-2.152631 307:3.24254 308:5.756317 309:5.39517 310:11.15149 311:-28.52234 312:24.31161 313:52.83395 314:0.02484472 315:0.01242236 316:0.447205 317:0.1987578 318:-3.737767 319:0.05267275 320:-7.951587 321:6.733104 322:79.05554 323:9.222162 324:-1.092032 325:5.068206 326:-7.806065 327:-2.712282 328:2.287619 329:5.093783 330:4.999901 331:10.09368 332:-34.74602 333:13.00731 334:47.75333 335:0.2484472 336:0.0310559 337:0.4906832 338:1 339:-3.976731 340:0.001303549 341:-4.081015 342:3.458735 343:15.95183 344:3.994433 345:-0.5137233 346:2.076685 347:-7.562704 348:-2.460588 349:-0.6299544 350:5.102116 351:1.830634 352:6.932749 353:-12.57109 354:2.598498 355:15.16959 356:0.2795031 357:0.0310559 358:0.1055901 359:0.01242236 360:-2.969356 361:-0.008088325 362:-2.32229 363:3.632731 364:19.68967 365:4.453199 366:-0.2493184 367:2.403044 368:-6.254564 369:-2.756339 370:0.6555452 371:3.498225 372:3.411884 373:6.910109 374:-13.55432 375:4.612891 376:18.16721 377:0.2795031 378:0.09937888 379:0.2795031 380:0.01863354 381:-3.022544 382:-0.01145831 383:-2.105879 384:3.640998 385:20.1483 386:4.520165 387:0.2025104 388:2.297445 389:-5.946403 390:-3.95836 391:0.8660573 392:1.988043 393:4.824417 394:6.81246 395:-12.4844 396:5.622497 397:18.1069 398:0.242236 399:0.09937888 400:0.2795031 401:0.01863354 402:-2.443451 403:-0.009624584 404:-1.673485 405:3.740977 406:20.465 407:4.545887 408:0.2169723 409:2.198487 410:-5.70973 411:-3.591688 412:1.292737 413:2.118042 414:4.884424 415:7.002467 416:-11.7218 417:6.149778 418:17.87158 419:0.2360248 420:0.08074534 421:0.1055901 422:0.00621118 423:-1.950976 424:-0.004652942 425:-1.57874 426:3.311684 427:15.84613 428:3.986589 429:-0.1302758 430:2.240568 431:-4.99727 432:-2.173015 433:1.802661 434:2.824255 435:3.975676 436:6.799932 437:-11.23356 438:4.782513 439:16.01607 440:0.2981367 441:0.09937888 442:0.2732919 443:0.01863354 444:-1.913601 445:-0.002393993 446:-1.722082 447:3.230521 448:13.89433 449:3.72917 450:-0.3117295 451:2.103079 452:-5.412669 453:-1.183635 454:1.235186 455:4.229034 456:2.418821 457:6.647855 458:-10.25311 459:4.378579 460:14.63169 461:0.2670808 462:0.03726708 463:0.2795031 464:0.00621118 465:-1.645981 466:-0.001544471 467:-1.522424 468:2.939104 469:11.65521 470:3.414727 471:-0.4143832 472:2.248919 473:-4.436844 474:-0.8416086 475:1.134081 476:3.595235 477:1.975689 478:5.570925 479:-9.425722 480:4.449597 481:13.87532 482:0.2546584 483:0.04968944 484:0.2857143 485:1 486:-1.751583 487:0.001580397 488:-1.878015 489:2.906102 490:10.93004 491:3.306877 492:-0.4373982 493:2.103031 494:-4.542473 495:-0.6468422 496:1.047408 497:3.895631 498:1.69425 499:5.589881 500:-8.908264 501:3.747234 502:12.6555 503:0.3167702 504:0.05590062 505:0.6273292 506:1 507:0.371425 508:9.391394e-05 509:0.3639119 510:0.134745 511:0.02484696 512:0.1576896 513:0.3700754 514:2.238409 515:0.2215481 516:0.3600007 517:0.4944898 518:0.1384526 519:0.134489 520:0.2729416 521:0.1363305 522:0.7400787 523:0.6037481 524:0.06832298 525:0.04347826 526:0.6459627 527:0.6956522 528:0.6255309 529:0.0004198805 530:0.5919405 531:0.1511863 532:0.03417256 533:0.1858854 534:0.103965 535:2.327492 536:0.496539 537:0.6274018 538:0.7448711 539:0.1308627 540:0.1174694 541:0.2483321 542:0.283638 543:0.9959029 544:0.7122649 545:0.1304348 546:0.02484472 547:0.6024845 548:0.3478261 549:0.9935614 550:0.0003762981 551:0.9634575 552:0.1526395 553:0.03304303 554:0.1826168 555:0.2852846 556:2.150539 557:0.8373979 558:0.9976633 559:1.102884 560:0.1602654 561:0.1052207 562:0.2654861 563:0.6969728 564:1.362881 565:0.6659084 566:0.1552795 567:0.04347826 568:0.6024845 569:0.310559 570:1.206109 571:0.0003588093 572:1.177404 573:0.1518351 574:0.03350797 575:0.1838098 576:-0.02566433 577:2.382652 578:1.083846 579:1.191033 580:1.354932 581:0.1071869 582:0.1638988 583:0.2710857 584:0.8021464 585:1.563504 586:0.7613573 587:0.2049689 588:0.04968944 589:0.5465838 590:0.5217391 591:1.602448 592:0.0004789723 593:1.564131 594:0.1042401 595:0.01513993 596:0.1250419 597:-0.3043864 598:2.105877 599:1.505825 600:1.61491 601:1.703904 602:0.1090842 603:0.08899462 604:0.1980789 605:1.354417 606:1.838463 607:0.4840459 608:0.1925466 609:0.03726708 610:0.6397516 611:0.09937888 612:1.804098 613:0.0003777596 614:1.773877 615:0.1007152 616:0.0142229 617:0.1205452 618:-0.5071658 619:2.128234 620:1.715172 621:1.838135 622:1.901621 623:0.122963 624:0.06348586 625:0.1864488 626:1.545208 627:1.987411 628:0.4422035 629:0.2919255 630:0.0310559 631:0.2298137 632:0.5031056 633:2.185332 634:-0.0002626783 635:2.206346 636:0.07629617 637:0.01096823 638:0.1054384 639:-1.332912 640:5.837913 641:2.146491 642:2.196898 643:2.256735 644:0.05040717 645:0.05983639 646:0.1102436 647:1.824734 648:2.367616 649:0.5428813 650:0.4161491 651:0.06832298 652:0.2298137 653:0.5031056 654:2.257716 655:-9.603948e-07 656:2.257792 657:0.07028669 658:0.008728525 659:0.09342659 660:-1.498037 661:6.310181 662:2.211737 663:2.274793 664:2.328079 665:0.06305599 666:0.05328608 667:0.1163421 668:1.918794 669:2.384584 670:0.4657897 671:0.5527951 672:0.2049689 673:0.1242236 674:1 675:188.7368 676:-0.3392451 677:215.8764 678:51.49756 679:5321.711 680:74.63444 681:-0.9297364 682:3.725267 683:128.9845 684:213.7147 685:230.9325 686:84.73021 687:17.21776 688:101.948 689:1 690:303.2021 691:303.2021 692:0.2795031 693:0.1118012 694:0.2981367 695:0.136646 696:0.5536202 697:-0.0009831333 698:0.6322709 699:0.1918078 700:0.05030513 701:0.2288949 702:-0.6468306 703:2.195896 704:0.3769384 705:0.6416534 706:0.7413653 707:0.264715 708:0.09971184 709:0.3644269 710:1 711:0.8632965 712:0.8632965 713:0.484472 714:0.1055901 715:0.484472 716:0.3354037 717:0.0004878276 718:-0.0003261452 719:0.02657945 720:0.1496073 721:0.04632787 722:0.2157722 723:-0.07676234 724:4.862387 725:-0.08304673 726:0.004635158 727:0.0948547 728:0.08768189 729:0.09021954 730:0.1779014 731:-0.6018788 732:0.6077514 733:1.20963 734:0.06832298 735:0.0310559 736:0.4534161 737:0.1428571 738:0.0827338 739:-0.02416281 740:2.015759 741:4.823477 742:40.93998 743:6.496235 744:0.02752048 745:3.311892 746:-3.155957 747:-0.1035889 748:3.825848 749:3.052368 750:3.929437 751:6.981805 752:-14.89533 753:15.10376 754:29.99908 755:0.1242236 756:0.03726708 757:0.7763975 758:0.5341615 759:0.01639483 760:-0.003949296 761:0.3323385 762:3.473385 763:21.032 764:4.589738 765:0.0364181 766:3.179469 767:-2.282032 768:-0.1343124 769:2.657505 770:2.14772 771:2.791818 772:4.939538 773:-10.02209 774:10.30545 775:20.32755 776:0.09937888 777:0.01242236 778:0.1304348 779:0.4161491 780:-0.04354914 781:0.004209551 782:-0.3803132 783:3.278661 784:16.88519 785:4.113814 786:-0.355451 787:2.906872 788:-2.744947 789:0.1354295 790:2.636839 791:2.880376 792:2.50141 793:5.381785 794:-10.42133 795:8.213768 796:18.6351 797:0.1304348 798:0.01863354 799:0.1180124 800:0.5962733 801:-0.0262325 802:0.002282861 803:-0.2088614 804:3.674341 805:22.01643 806:4.693366 807:0.08009214 808:3.376888 809:-3.342295 810:-0.08013599 811:2.667888 812:3.262159 813:2.748024 814:6.010183 815:-11.38873 816:11.36023 817:22.74896 818:0.136646 819:0.04347826 820:0.1304348 821:0.03726708 822:-0.02748711 823:0.004728172 824:-0.4057408 825:2.523166 826:10.28156 827:3.214007 828:0.2193267 829:2.895705 830:-2.303711 831:0.1880315 832:1.76355 833:2.491742 834:1.575519 835:4.067261 836:-6.701935 837:8.157404 838:14.85934 839:0.0621118 840:0.02484472 841:0.2236025 842:0.6459627 843:-0.000218167 844:0.007275786 845:-0.5822811 846:3.801279 847:23.67533 848:4.877466 849:0.3126898 850:2.897454 851:-3.18399 852:-0.06706543 853:2.743984 854:3.116925 855:2.811049 856:5.927974 857:-9.772606 858:12.47821 859:22.25082 860:0.08074534 861:0.0310559 862:0.136646 863:0.1801242 864:-0.1282241 865:0.00620936 866:-0.6249729 867:4.441532 868:33.11111 869:5.761458 870:-0.2457622 871:3.370644 872:-3.70168 873:0.1776054 874:3.44388 875:3.879285 876:3.266274 877:7.14556 878:-15.10515 879:12.07441 880:27.17955 881:0.1242236 882:0.01863354 883:0.7204969 884:0.4658385 885:-0.007068133 886:0.003097354 887:-0.2548564 888:2.699608 889:11.11955 890:3.337705 891:-0.1695689 892:3.189114 893:-2.284916 894:0.2085143 895:2.178693 896:2.49343 897:1.970178 898:4.463609 899:-8.422316 900:7.246247 901:15.66856 902:0.0931677 903:0.01242236 904:0.6770186 905:0.6521739 906:-0.07616499 907:-0.0004053944 908:-0.04373344 909:3.27033 910:18.26401 911:4.273683 912:0.2135869 913:3.057985 914:-3.15511 915:-0.1676747 916:2.560575 917:2.987435 918:2.72825 919:5.715684 920:-9.146935 921:10.3478 922:19.49474 923:0.08695652 924:0.04347826 925:0.3975155 926:0.9254658 927:-0.07022561 928:-0.0003355873 929:-0.04337863 930:3.05949 931:14.92279 932:3.863034 933:0.01767133 934:2.729913 935:-2.218658 936:-0.3113195 937:2.619026 938:1.907339 939:2.930346 940:4.837685 941:-8.974219 942:8.52583 943:17.50005 944:0.136646 945:0.0310559 946:0.1552795 947:0.1180124 948:0.01960635 949:0.005119375 950:-0.3899437 951:2.354432 952:9.451137 953:3.083463 954:-0.03720875 955:3.824153 956:-1.944404 957:0.2912561 958:1.959015 959:2.235661 960:1.667759 961:3.903419 962:-7.863699 963:8.176932 964:16.04063 965:0.04968944 966:0.01242236 967:0.1490683 968:0.3478261 969:0.08303889 970:0.007713996 971:-0.5340808 972:2.603147 973:11.0556 974:3.344269 975:-0.4730655 976:3.439844 977:-1.917342 978:0.3073125 979:2.276006 980:2.224654 981:1.968693 982:4.193347 983:-9.298382 984:6.531839 985:15.83022 986:0.173913 987:0.0310559 988:0.4037267 989:0.5093167 990:0.1270992 991:0.01019484 992:-0.6884879 993:2.968365 994:14.91505 995:3.890957 996:-0.2022852 997:2.961465 998:-2.016655 999:0.1557954 1000:2.716959 1001:2.172451 1002:2.561164 1003:4.733614 1004:-9.602318 1005:8.167862 1006:17.77018 1007:0.173913 1008:0.04968944 1009:0.5900621 1010:0.5590062 1011:-0.06879077 1012:0.002610657 1013:-0.2776433 1014:2.0823 1015:7.199391 1016:2.68591 1017:-0.04976668 1018:3.47212 1019:-1.61912 1020:-0.2017568 1021:1.576296 1022:1.417363 1023:1.778052 1024:3.195416 1025:-6.943236 1026:6.579407 1027:13.52264 1028:0.06832298 1029:0.01863354 1030:0.3726708 1031:0.3416149 1032:-0.05504125 1033:0.001644974 1034:-0.1866392 1035:2.257155 1036:9.057724 1037:3.010576 1038:-0.3771791 1039:4.079315 1040:-1.530124 1041:0.03352051 1042:1.653443 1043:1.563644 1044:1.619923 1045:3.183567 1046:-8.404669 1047:6.459697 1048:14.86437 1049:0.173913 1050:0.05590062 1051:0.1801242 1052:0.1428571 1053:0.01057975 1054:-0.003644501 1055:0.3021398 1056:0.8877631 1057:1.320389 1058:1.161498 1059:0.1094597 1060:2.495999 1061:-0.8772128 1062:-0.06666747 1063:0.6842729 1064:0.8105453 1065:0.7509404 1066:1.561486 1067:-2.401524 1068:2.374344 1069:4.775868 1070:0.1863354 1071:0.06832298 1072:0.1801242 1073:0.1428571 1074:0.01680257 1075:-0.004184918 1076:0.351596 1077:0.9235694 1078:1.369631 1079:1.186364 1080:0.07251412 1081:2.392535 1082:-0.8560076 1083:-0.1112223 1084:0.9035984 1085:0.7447853 1086:1.014821 1087:1.759606 1088:-2.475343 1089:2.397105 1090:4.872448 1091:0.2173913 1092:0.05590062 1093:0.03726708 1094:0.136646 1095:0.01674422 1096:-0.003742062 1097:0.3161092 1098:0.7805942 1099:1.061101 1100:1.044676 1101:-0.04279951 1102:3.079454 1103:-0.5484737 1104:-0.04627256 1105:0.6849023 1106:0.5022011 1107:0.7311748 1108:1.233376 1109:-2.673589 1110:2.223308 1111:4.896897 1112:0.2049689 1113:0.05590062 1114:0.2484472 1115:0.1428571 1116:0.01471137 1117:-0.003672189 1118:0.3084865 1119:0.7980994 1120:1.097803 1121:1.06157 1122:-0.07569286 1123:3.003576 1124:-0.5841949 1125:-0.05317178 1126:0.7031198 1127:0.5310231 1128:0.7562916 1129:1.287315 1130:-2.483923 1131:2.273509 1132:4.757432 1133:0.1677019 1134:0.04968944 1135:0.173913 1136:0.1428571 1137:0.01658035 1138:-0.003720622 1139:0.3142301 1140:0.7941708 1141:1.129175 1142:1.076604 1143:-0.265596 1144:3.423153 1145:-0.4097447 1146:0.07478032 1147:0.6122506 1148:0.4845251 1149:0.5374703 1150:1.021995 1151:-2.711723 1152:2.441991 1153:5.153714 1154:0.1118012 1155:0.04968944 1156:0.4534161 1157:0.1428571 1158:0.009981384 1159:-0.00347335 1160:0.2878494 1161:0.7598896 1162:1.059698 1163:1.041996 1164:0.03284718 1165:3.565705 1166:-0.5922893 1167:0.03813286 1168:0.503113 1169:0.6304222 1170:0.4649801 1171:1.095402 1172:-2.624335 1173:2.474888 1174:5.099223 1175:0.1118012 1176:0.05590062 1177:0.4534161 1178:0.1428571 1179:0.009211555 1180:-0.00326564 1181:0.2704628 1182:0.6638654 1183:0.863453 1184:0.941535 1185:0.09751466 1186:3.800916 1187:-0.4281048 1188:0.07041068 1189:0.3757703 1190:0.4985154 1191:0.3053596 1192:0.8038751 1193:-2.36039 1194:2.298136 1195:4.658526 1196:0.1118012 1197:0.03726708 1198:0.1677019 1199:0.1428571 1200:0.0139831 1201:-0.002885574 1202:0.244829 1203:0.6609416 1204:0.8217679 1205:0.9163805 1206:0.08087368 1207:3.496826 1208:-0.4614716 1209:-0.03201304 1210:0.3632712 1211:0.4294585 1212:0.3952842 1213:0.8247427 1214:-2.121549 1215:2.164392 1216:4.285941 1217:0.1490683 1218:0.04968944 1219:0.7391304 1220:0.6459627 1221:0.0008702901 1222:-7.661676e-05 1223:0.006999631 1224:0.03652048 1225:0.002323014 1226:0.04832901 1227:0.3435166 1228:3.587653 1229:-0.0282239 1230:-0.005508976 1231:0.02548384 1232:0.02271493 1233:0.03099281 1234:0.05370774 1235:-0.1105568 1236:0.1299399 1237:0.2404968 1238:0.09937888 1239:0.02484472 1240:0.5341615 1241:0.6583851 1242:-0.000331887 1243:4.306016e-05 1244:-0.0037767 1245:0.04058268 1246:0.002968357 1247:0.05451938 1248:0.04652609 1249:3.923124 1250:-0.03029709 1251:0.00188877 1252:0.02334799 1253:0.03218586 1254:0.02145922 1255:0.05364508 1256:-0.1344888 1257:0.1364142 1258:0.270903 1259:0.08074534 1260:0.01242236 1261:0.5341615 1262:0.6832298 1263:-0.0002349152 1264:1.77446e-05 1265:-0.001654483 1266:0.03170631 1267:0.00177409 1268:0.04212802 1269:0.0521048 1270:4.094197 1271:-0.02486774 1272:-0.002090984 1273:0.02090535 1274:0.02277676 1275:0.02299634 1276:0.0457731 1277:-0.108604 1278:0.1049027 1279:0.2135066 1280:0.04968944 1281:0.01242236 1282:0.5341615 1283:0.08074534 1284:-0.0009591559 1285:6.206196e-05 1286:-0.005924113 1287:0.03748425 1288:0.002239197 1289:0.04740798 1290:-0.2124384 1291:3.03086 1292:-0.03381651 1293:0.004515267 1294:0.0288316 1295:0.03833177 1296:0.02431634 1297:0.0626481 1298:-0.1155033 1299:0.1075005 1300:0.2230038 1301:0.0931677 1302:0.01863354 1303:0.5341615 1304:0.9254658 1305:-0.0003306284 1306:4.414537e-05 1307:-0.003862258 1308:0.02894807 1309:0.001430949 1310:0.03788349 1311:0.4217053 1312:3.840305 1313:-0.02242546 1314:-0.00469073 1315:0.01864752 1316:0.01773473 1317:0.02333825 1318:0.04107298 1319:-0.08657657 1320:0.1018316 1321:0.1884082 1322:0.04347826 1323:0.01242236 1324:0.2298137 1325:0.6521739 1326:-0.0003420161 1327:4.257554e-05 1328:-0.003748059 1329:0.03027605 1330:0.00142348 1331:0.03778088 1332:-0.1117811 1333:2.678056 1334:-0.0294196 1335:0.001909411 1336:0.02526444 1337:0.03132901 1338:0.02335503 1339:0.05468404 1340:-0.08862747 1341:0.07439759 1342:0.1630251 1343:0.1490683 1344:0.01242236 1345:0.515528 1346:0.4782609 1347:-0.0002596263 1348:2.722044e-05 1349:-0.002437262 1350:0.01977931 1351:0.0007168417 1352:0.02680377 1353:0.05863119 1354:3.954596 1355:-0.01212313 1356:-0.002985954 1357:0.01232185 1358:0.009137178 1359:0.01530781 1360:0.02444499 1361:-0.07239863 1362:0.06706778 1363:0.1394664 1364:0.0621118 1365:0.01242236 1366:0.515528 1367:0.484472 1368:-0.000118776 1369:3.065017e-05 1370:-0.00257079 1371:0.0176107 1372:0.0005874941 1373:0.0242801 1374:0.01343431 1375:4.444482 1376:-0.0122575 1377:-0.002155328 1378:0.01302314 1379:0.01010218 1380:0.01517847 1381:0.02528064 1382:-0.07225624 1383:0.06510726 1384:0.1373635 1385:0.07453416 1386:0.01863354 1387:0.08074534 1388:0.242236 1389:0.7827951 1390:-0.05820451 1391:5.439156 1392:4.636055 1393:101.8078 1394:10.44631 1395:5.266278 1396:34.08941 1397:-1.657626 1398:1 1399:0.6759011 1400:1.657626 1401:0.6759011 1402:2.333528 1403:-10.48306 1404:58.33456 1405:68.81761 1406:0.01242236 1407:0.01242236 1408:0.6521739 1409:0.1242236 1410:-6.153282e-05 1411:-0.0001462059 1412:0.01163494 1413:0.05402373 1414:0.005469113 1415:0.07426497 1416:-0.2614897 1417:3.28488 1418:-0.03347126 1419:0.004556799 1420:0.0353206 1421:0.03802806 1422:0.0307638 1423:0.06879187 1424:-0.1651808 1425:0.1654407 1426:0.3306215 1427:0.1118012 1428:0.01242236 1429:0.06818182 1430:0.9204546 1431:155.3551 1432:-1.455574 1433:218.6726 1434:47.93081 1435:3455.506 1436:69.44492 1437:0.2471814 1438:2.213486 1439:90.53695 1440:153.8527 1441:216.3593 1442:63.31574 1443:62.50665 1444:125.8224 1445:311.4756 1446:0.05681818 1447:0.04545455 1448:0.1794872 1449:0.2820513 1450:0.02264798 1451:-0.0001400852 1452:0.02804126 1453:0.01399748 1454:0.0004625891 1455:0.02173791 1456:2.783013 1457:12.42332 1458:0.008525973 1459:0.01906897 1460:0.02881605 1461:0.010543 1462:0.009747077 1463:0.02029007 1464:0.118624 1465:0.03846154 1466:0.02564103 1467:0.630137 1468:0.9315069 1469:0.01544226 1470:-8.893138e-05 1471:0.01864379 1472:0.01222042 1473:0.0003726907 1474:0.01939593 1475:2.317733 1476:7.449572 1477:0.004931148 1478:0.009145033 1479:0.01379477 1480:0.004213885 1481:0.004649735 1482:0.00886362 1483:0.08402873 1484:0.05479452 1485:0.04109589 1486:0.1976744 1487:0.3255814 1488:0.1542954 1489:-0.0007678358 1490:0.1869285 1491:0.1022093 1492:0.01687719 1493:0.1313031 1494:1.434093 1495:4.755784 1496:0.06146506 1497:0.1134043 1498:0.2060617 1499:0.05193929 1500:0.09265733 1501:0.1445966 1502:0.5744559 1503:0.02325581 1504:0.02325581 1505:0.025 1506:0.08333334 1507:4.346172e-08 1508:-0.09494585 1509:5.649278 1510:26.93291 1511:1141.876 1512:33.95134 1513:-0.06757607 1514:2.572991 1515:-21.48638 1516:0.09519615 1517:25.00616 1518:21.58157 1519:24.91096 1520:46.49253 1521:72.43777 1522:0.15 1523:0.01666667 1524:0.1964286 1525:0.2232143 1526:7.925597e-12 1527:-1.508988e-05 1528:0.0008374886 1529:0.006263714 1530:7.686832e-05 1531:0.008781021 1532:0.6097888 1533:7.153723 1534:-0.005054855 1535:-0.00130556 1536:0.00425182 1537:0.003749295 1538:0.005557379 1539:0.009306674 1540:0.03205964 1541:0.02678571 1542:0.01785714 1543:0.6074767 1544:0.635514 1545:9.043947e-12 1546:-1.104337e-05 1547:0.0005852986 1548:0.004390167 1549:5.478473e-05 1550:0.007409527 1551:0.1651468 1552:6.82016 1553:-0.002408607 1554:-0.0006214189 1555:0.001790168 1556:0.001787188 1557:0.002411587 1558:0.004198776 1559:0.0243437 1560:0.06542056 1561:0.01869159 1562:0.2118644 1563:0.2372881 1564:1.016168e-10 1565:-9.6921e-05 1566:0.005669879 1567:0.04392686 1568:0.003289328 1569:0.0574476 1570:0.3517076 1571:3.594052 1572:-0.03163501 1573:-0.01039914 1574:0.03822068 1575:0.02123586 1576:0.04861983 1577:0.06985569 1578:0.1512799 1579:0.07627118 1580:0.01694915 1581:10 1582:1.63 
0.0003774642058951392 0 1:0.5657895 2:0.4824561 3:1.238031 4:0.003172911 5:0.8779058 6:0.6536367 7:0.6610296 8:0.8394287 9:0.876837 10:3.463329 11:0.5766985 12:1.130911 13:1.704563 14:0.5542126 15:0.573652 16:1.127865 17:0.1334475 18:3.452406 19:3.318959 20:0.03070175 21:0.00877193 22:0.5526316 23:0.3464912 24:-15.7363 25:0.02964382 26:-19.10087 27:16.53996 28:418.1121 29:20.54066 30:-1.113335 31:3.300163 32:-25.45145 33:-7.595482 34:-0.2855874 35:17.85596 36:7.309895 37:25.16586 38:-71.97021 39:9.160868 40:81.13107 41:0.5657895 42:0.1447368 43:0.7105263 44:0.8421053 45:-13.26832 46:0.02094805 47:-15.64592 48:14.49073 49:340.1647 50:18.49502 51:-0.8773236 52:3.000829 53:-21.59162 54:-8.467072 55:-0.03616446 56:13.12455 57:8.430907 58:21.55545 59:-60.76404 60:14.25972 61:75.02376 62:0.3245614 63:0.06140351 64:0.3333333 65:1 66:-2.611073 67:0.001419645 68:-2.772202 69:8.271079 70:90.08996 71:9.492033 72:-0.01588925 73:1.942599 74:-9.899014 75:-3.636007 76:6.370399 77:6.263007 78:10.00641 79:16.26941 80:-20.26859 81:14.82554 82:35.09413 83:0.2938597 84:0.06578948 85:0.122807 86:0.5701754 87:9.371036 88:0.03804936 89:5.052433 90:13.63203 91:298.1744 92:17.44838 93:-0.487935 94:2.722604 95:-1.385311 96:11.09371 97:24.23401 98:12.47902 99:13.1403 100:25.61932 101:-33.52906 102:41.61312 103:75.14218 104:0.254386 105:0.02631579 106:0.3333333 107:0.5833333 108:-6.478409 109:-0.02743103 110:-3.364986 111:9.601362 112:171.0082 113:13.20105 114:-1.234384 115:6.012974 116:-12.80226 117:-5.155791 118:1.654054 119:7.646466 120:6.809845 121:14.45631 122:-55.48161 123:16.57442 124:72.05604 125:0.3245614 126:0.06140351 127:0.9868421 128:0.1798246 129:-11.55383 130:-0.03045589 131:-8.097089 132:12.11128 133:225.424 134:15.14735 135:-0.168203 136:2.496692 137:-20.89072 138:-11.80282 139:-0.3035486 140:9.087894 141:11.49928 142:20.58717 143:-45.92391 144:18.20103 145:64.12494 146:0.2061404 147:0.06140351 148:0.9868421 149:0.8903509 150:-20.46953 151:-0.02408898 152:-17.73543 153:13.18269 154:268.7784 155:16.47095 156:-0.1168622 157:2.574149 158:-31.67744 159:-19.71129 160:-8.872392 161:11.96616 162:10.8389 163:22.80505 164:-55.88064 165:15.32838 166:71.20901 167:0.1666667 168:0.03508772 169:0.7236842 170:0.4561403 171:-4.509616 172:-0.01346534 173:-2.981299 174:9.89383 175:154.7446 176:12.47117 177:0.01710772 178:2.849217 179:-13.18128 180:-4.047423 181:2.697276 182:9.133858 183:6.7447 184:15.87856 185:-31.88467 186:23.03795 187:54.92262 188:0.1359649 189:0.05263158 190:1 191:0.6008772 192:-16.18582 193:-0.06540041 194:-8.762871 195:12.43647 196:236.9454 197:15.98355 198:-0.2731902 199:2.442968 200:-27.27475 201:-14.58384 202:-4.396464 203:12.69091 204:10.18738 205:22.87828 206:-53.9923 207:13.88426 208:67.87656 209:0.2149123 210:0.03508772 211:0.2192982 212:0.4035088 213:-4.06642 214:-0.08847644 215:5.975657 216:13.96769 217:291.3185 218:18.03411 219:-0.3914794 220:2.424525 221:-15.67174 222:-3.771389 223:11.17487 224:11.90035 225:14.94626 226:26.84661 227:-47.10997 228:25.31962 229:72.4296 230:0.3114035 231:0.09210526 232:0.01754386 233:0.3903509 234:-5.912951 235:-0.04716678 236:-0.5595208 237:10.01923 238:189.6065 239:14.11537 240:-1.345773 241:6.429644 242:-12.83757 243:-3.974873 244:2.729228 245:8.862696 246:6.704101 247:15.5668 248:-57.76442 249:19.63759 250:77.40201 251:0.3464912 252:0.05263158 253:0.8596491 254:0.9605263 255:-4.348117 256:0.004114197 257:-4.815079 258:8.797343 259:114.3994 260:10.69919 261:0.1263078 262:2.543482 263:-12.34356 264:-3.942361 265:2.983694 266:8.401202 267:6.926054 268:15.32726 269:-26.001 270:17.87787 271:43.87887 272:0.06140351 273:0.00877193 274:0.5877193 275:0.4078947 276:-4.337048 277:-0.05978092 278:2.448087 279:7.4242 280:94.07871 281:10.46709 282:-0.3836597 283:2.667957 284:-11.08856 285:-3.286744 286:3.132528 287:7.801814 288:6.419272 289:14.22109 290:-30.10206 291:14.14036 292:44.24241 293:0.1842105 294:0.03508772 295:0.4473684 296:0.5131579 297:-1.101781 298:-0.06594738 299:6.383246 300:8.857903 301:141.2586 302:12.653 303:-0.4435942 304:3.78645 305:-6.983897 306:0.9473085 307:6.817423 308:7.931205 309:5.870115 310:13.80132 311:-35.38296 312:25.01714 313:60.4001 314:0.03070175 315:0.00877193 316:0.4561403 317:0.2236842 318:-6.508073 319:-0.01254718 320:-5.083968 321:8.128393 322:108.1058 323:10.43014 324:0.6760988 325:4.165094 326:-13.77591 327:-7.380199 328:0.35274 329:6.39571 330:7.732939 331:14.12865 332:-26.15624 333:26.64367 334:52.79991 335:0.02192982 336:0.01315789 337:0.6491228 338:0.8640351 339:-1.286643 340:0.01123882 341:-2.562249 342:2.961834 343:12.44817 344:3.604904 345:-0.6102647 346:2.498085 347:-4.021892 348:-0.4889287 349:1.645055 350:3.532963 351:2.133984 352:5.666947 353:-9.504855 354:3.843098 355:13.34795 356:0.4078947 357:0.1578947 358:0.6491228 359:0.8640351 360:-1.062454 361:0.007718982 362:-1.938559 363:2.791111 364:12.43565 365:3.562829 366:-0.4775294 367:2.939664 368:-2.848591 369:-1.152017 370:1.740337 371:1.696574 372:2.892353 373:4.588927 374:-10.12749 375:4.782546 376:14.91003 377:0.2982456 378:0.1052632 379:0.5701754 380:0.3421053 381:-2.346172 382:0.00466433 383:-2.875574 384:2.046495 385:8.407623 386:2.915797 387:-0.6120241 388:4.313664 389:-3.306389 390:-1.906132 391:-0.8366544 392:1.400256 393:1.069478 394:2.469734 395:-10.7427 396:4.695817 397:15.43852 398:0.07894737 399:0.03070175 400:0.5657895 401:0.3421053 402:-1.593716 403:0.002155559 404:-1.838372 405:2.335861 406:9.313601 407:3.055115 408:-0.671459 409:3.485527 410:-2.955935 411:-1.0542 412:0.3451677 413:1.901736 414:1.399367 415:3.301103 416:-9.969812 417:4.965016 418:14.93483 419:0.1052632 420:0.04385965 421:0.6535088 422:0.3464912 423:-0.3681672 424:0.005022386 425:-0.9382079 426:2.862142 427:11.69336 428:3.435496 429:-0.7953765 430:2.712949 431:-2.583007 432:0.5308939 433:2.20307 434:3.113901 435:1.672176 436:4.786077 437:-9.245421 438:4.136502 439:13.38192 440:0.4692982 441:0.1710526 442:0.8157895 443:0.3421053 444:0.4037227 445:0.005734792 446:-0.2471762 447:2.94681 448:12.34251 449:3.533408 450:-0.7313883 451:2.672512 452:-2.085499 453:1.506191 454:2.976525 455:3.59169 456:1.470334 457:5.062024 458:-8.597577 459:6.403867 460:15.00144 461:0.3157895 462:0.04824561 463:0.8157895 464:0.4342105 465:0.2180312 466:0.00376162 467:-0.2089128 468:2.733359 469:11.6748 470:3.425799 471:-0.3948676 472:2.807585 473:-1.976857 474:1.003418 475:2.390424 476:2.980275 477:1.387006 478:4.36728 479:-7.733247 480:7.2739 481:15.00715 482:0.1096491 483:0.04824561 484:0.254386 485:0.4342105 486:0.4992102 487:0.002542741 488:0.2106091 489:2.695145 490:11.90482 491:3.454392 492:-0.4199764 493:2.755584 494:-1.329459 495:1.075312 496:2.544035 497:2.40477 498:1.468723 499:3.873494 500:-7.354517 501:6.923399 502:14.27792 503:0.1447368 504:0.06578948 505:0.8289474 506:0.3421053 507:0.3172107 508:-2.406357e-05 509:0.3199419 510:0.136043 511:0.03304317 512:0.1817847 513:1.664874 514:5.639666 515:0.2012773 516:0.2515676 517:0.3666219 518:0.05029026 519:0.1150543 520:0.1653446 521:0.1022227 522:0.9565632 523:0.8543405 524:0.03508772 525:0.01754386 526:0.8070176 527:0.4605263 528:0.6112615 529:-0.0007108768 530:0.6919461 531:0.1876722 532:0.05306029 533:0.2350519 534:0.5060866 535:2.420893 536:0.4294495 537:0.5635493 538:0.8003182 539:0.1340998 540:0.236769 541:0.3708688 542:0.2599682 543:1.161789 544:0.9018205 545:0.06578948 546:0.02192982 547:0.8464912 548:0.5877193 549:1.073849 550:0.0002110738 551:1.049892 552:0.1561965 553:0.03903849 554:0.1980694 555:-0.2440427 556:2.872349 557:0.9376601 558:1.096037 559:1.196091 560:0.1583767 561:0.1000541 562:0.2584307 563:0.6037163 564:1.51287 565:0.9091538 566:0.1008772 567:0.04385965 568:0.8464912 569:0.5701754 570:1.293244 571:-0.0001501358 572:1.310285 573:0.1383608 574:0.03370086 575:0.1838437 576:-0.3593085 577:3.609953 578:1.200335 579:1.291641 580:1.413457 581:0.09130597 582:0.121816 583:0.213122 584:0.8002681 585:1.686403 586:0.8861345 587:0.1535088 588:0.04385965 589:0.8464912 590:0.1447368 591:1.618307 592:-0.0001341588 593:1.633534 594:0.1050428 595:0.0165598 596:0.1289875 597:0.4929023 598:2.519631 599:1.514673 600:1.598364 601:1.710549 602:0.083691 603:0.1121849 604:0.1958759 605:1.400716 606:1.935051 607:0.5343348 608:0.1008772 609:0.03070175 610:0.254386 611:0.6535088 612:1.801821 613:-0.0001572108 614:1.819665 615:0.1199361 616:0.02038056 617:0.143135 618:-0.1291002 619:2.31359 620:1.699817 621:1.812487 622:1.908724 623:0.1126698 624:0.09623691 625:0.2089067 626:1.471596 627:2.091245 628:0.6196488 629:0.1929825 630:0.03947368 631:0.07894737 632:0.5657895 633:2.184589 634:-0.0001409389 635:2.200586 636:0.05959791 637:0.005121952 638:0.07216645 639:-0.124966 640:2.317547 641:2.134126 642:2.190765 643:2.235792 644:0.05663919 645:0.04502642 646:0.1016656 647:2.037793 648:2.321226 649:0.2834334 650:0.122807 651:0.02192982 652:0.07894737 653:0.4078947 654:2.271452 655:-0.0001705542 656:2.29081 657:0.04352702 658:0.002809924 659:0.05418427 660:-0.4101235 661:2.515815 662:2.233857 663:2.275123 664:2.314361 665:0.04126644 666:0.03923756 667:0.080504 668:2.141205 669:2.367671 670:0.2264667 671:0.2631579 672:0.03508772 673:0.4561403 674:1 675:199.1597 676:0.453279 677:147.7125 678:33.45824 679:2771.505 680:60.51072 681:-0.5777412 682:6.208288 683:167.7589 684:207.7438 685:216.3959 686:39.98499 687:8.6521 688:48.63708 689:1 690:342.8432 691:342.8432 692:0.1140351 693:0.05701754 694:0.5614035 695:0.1447368 696:0.5586367 697:0.0007211589 698:0.4767851 699:0.1937031 700:0.05140985 701:0.2316522 702:-0.7489775 703:2.407701 704:0.3927011 705:0.6476327 706:0.7562587 707:0.2549315 708:0.108626 709:0.3635576 710:1 711:0.8171558 712:0.8171558 713:0.5175439 714:0.2631579 715:0.5570176 716:0.6622807 717:0.0008804542 718:-0.0002216386 719:0.02603644 720:0.2014429 721:0.07978265 722:0.2828346 723:0.2407454 724:4.634192 725:-0.1404612 726:0.002274199 727:0.1301533 728:0.1427354 729:0.1278791 730:0.2706145 731:-0.7503795 732:0.786182 733:1.536561 734:0.07017544 735:0.01315789 736:0.872807 737:0.3289474 738:-0.02401606 739:-0.01000759 740:1.111845 741:3.911052 742:31.86087 743:5.682845 744:-0.05274986 745:4.834638 746:-2.691895 747:-0.04000761 748:2.57599 749:2.651888 750:2.615998 751:5.267886 752:-16.46649 753:16.30861 754:32.7751 755:0.05263158 756:0.01754386 757:0.7675439 758:0.2412281 759:-0.03157332 760:5.801136e-05 761:-0.03815761 762:3.400752 763:18.14022 764:4.259135 765:-0.1705756 766:2.702576 767:-2.896828 768:0.1411842 769:3.340595 770:3.038012 771:3.199411 772:6.237424 773:-10.14313 774:8.866937 775:19.01007 776:0.127193 777:0.02631579 778:0.6578947 779:0.2719298 780:0.1135496 781:-0.002108319 782:0.3528438 783:2.232324 784:7.655543 785:2.770343 786:0.002470835 787:2.630621 788:-1.756292 789:0.2635167 790:1.956431 791:2.019809 792:1.692914 793:3.712723 794:-5.86523 795:6.018882 796:11.88411 797:0.122807 798:0.01754386 799:0.1052632 800:0.07017544 801:0.01049243 802:-0.001251008 803:0.1524819 804:3.231201 805:19.26221 806:4.389645 807:0.5993444 808:4.38994 809:-2.468306 810:-0.09626876 811:2.025799 812:2.372037 813:2.122068 814:4.494105 815:-8.223802 816:12.8069 817:21.0307 818:0.02192982 819:0.00877193 820:0.6052632 821:0.5701754 822:-0.02029601 823:0.002162527 824:-0.2657428 825:2.829346 826:12.76282 827:3.575344 828:0.0002388078 829:3.401764 830:-2.457814 831:0.2925088 832:2.38093 833:2.750323 834:2.088422 835:4.838745 836:-8.316833 837:10.29253 838:18.60936 839:0.03508772 840:0.01754386 841:0.9473684 842:0.4035088 843:0.1062247 844:0.003825285 845:-0.3279451 846:3.88311 847:25.11595 848:5.017902 849:0.2634814 850:3.341034 851:-2.944473 852:-0.1637017 853:3.328213 854:2.780771 855:3.491915 856:6.272686 857:-9.992785 858:13.32386 859:23.31665 860:0.03070175 861:0.004385965 862:0.5570176 863:0.8815789 864:0.1058237 865:0.004091318 866:-0.3585408 867:3.771992 868:23.98011 869:4.904347 870:-0.2881016 871:3.338275 872:-2.733755 873:0.2112374 874:3.251234 875:2.944992 876:3.039997 877:5.984989 878:-11.39811 879:10.34389 880:21.74201 881:0.1052632 882:0.01315789 883:0.6096491 884:0.627193 885:0.04690465 886:0.001197482 887:-0.08900955 888:3.114904 889:16.06256 890:4.008588 891:0.01610801 892:3.264362 893:-2.461279 894:-0.0504149 895:2.334507 896:2.410864 897:2.384922 898:4.795786 899:-9.627864 900:9.650394 901:19.27826 902:0.05263158 903:0.01315789 904:0.622807 905:0.1140351 906:-0.1236264 907:0.004195799 908:-0.5998496 909:3.172621 910:14.86448 911:3.865326 912:-0.08277091 913:2.488089 914:-3.081588 915:-0.04308407 916:2.624285 917:3.038504 918:2.667369 919:5.705873 920:-8.499713 921:7.878948 922:16.37866 923:0.131579 924:0.01754386 925:0.4780702 926:0.4605263 927:-0.1611187 928:0.002065933 929:-0.3956021 930:3.619156 931:21.81495 932:4.672626 933:0.07270508 934:3.731615 935:-3.221857 936:-0.263514 937:2.65732 938:2.958343 939:2.920834 940:5.879177 941:-10.39314 942:12.42499 943:22.81813 944:0.08333334 945:0.02631579 946:0.4166667 947:0.381579 948:-0.05177918 949:0.0005112608 950:-0.1098073 951:2.8969 952:14.96666 953:3.868823 954:-0.634703 955:5.22669 956:-2.288026 957:0.231507 958:2.498789 959:2.519533 960:2.267282 961:4.786816 962:-12.62258 963:9.379685 964:22.00226 965:0.09649123 966:0.01754386 967:0.7280702 968:0.8684211 969:0.02159626 970:0.0005876897 971:-0.04510652 972:2.491154 973:9.798287 974:3.130461 975:-0.2668346 976:2.909633 977:-2.218493 978:0.099313 979:2.245926 980:2.317806 981:2.146613 982:4.464418 983:-7.649585 984:6.660107 985:14.30969 986:0.1140351 987:0.02192982 988:0.5745614 989:0.5964912 990:-0.08503319 991:0.001611522 992:-0.267941 993:2.568357 994:10.68815 995:3.270994 996:0.5659282 997:3.607095 998:-2.449189 999:-0.6724114 1000:1.667428 1001:1.776778 1002:2.339839 1003:4.116617 1004:-6.576251 1005:8.489199 1006:15.06545 1007:0.09210526 1008:0.03947368 1009:0.1666667 1010:0.4605263 1011:-0.09373223 1012:0.001513757 1013:-0.2655436 1014:2.993469 1015:14.46746 1016:3.804916 1017:0.04513461 1018:3.142058 1019:-2.39924 1020:-0.3076742 1021:2.118215 1022:2.091565 1023:2.425889 1024:4.517454 1025:-9.083254 1026:9.157754 1027:18.24101 1028:0.131579 1029:0.03508772 1030:0.1359649 1031:0.2149123 1032:0.000718225 1033:0.0007722938 1034:-0.08693711 1035:2.457439 1036:10.89614 1037:3.301321 1038:-0.151282 1039:3.541047 1040:-1.925386 1041:0.08565454 1042:2.093731 1043:2.011041 1044:2.008077 1045:4.019117 1046:-7.447043 1047:8.069591 1048:15.51663 1049:0.08333334 1050:0.02631579 1051:0.872807 1052:0.4210526 1053:0.004670567 1054:-0.001648995 1055:0.1918315 1056:0.7923305 1057:1.09582 1058:1.052426 1059:0.2455911 1060:3.393545 1061:-0.6021606 1062:-0.1259324 1063:0.6144154 1064:0.4762281 1065:0.7403479 1066:1.216576 1067:-2.392169 1068:2.320338 1069:4.712507 1070:0.06578948 1071:0.00877193 1072:0.872807 1073:0.4210526 1074:-0.009011604 1075:-0.001687323 1076:0.1824996 1077:0.766183 1078:1.063324 1079:1.037139 1080:0.1428313 1081:3.679032 1082:-0.5822123 1083:-0.06896373 1084:0.5720667 1085:0.5132486 1086:0.6410304 1087:1.154279 1088:-2.63497 1089:2.468513 1090:5.103484 1091:0.05701754 1092:0.00877193 1093:0.872807 1094:0.3289474 1095:-0.001846374 1096:-0.001236645 1097:0.1385128 1098:0.5568219 1099:0.6170424 1100:0.789726 1101:0.1405604 1102:4.764336 1103:-0.3741339 1104:-0.08366957 1105:0.3848044 1106:0.2904643 1107:0.468474 1108:0.7589384 1109:-2.158451 1110:2.146011 1111:4.304462 1112:0.05701754 1113:0.01315789 1114:0.872807 1115:0.3289474 1116:-0.01261179 1117:-0.001066702 1118:0.1084589 1119:0.5759858 1120:0.6930188 1121:0.8354327 1122:-0.1265824 1123:4.543805 1124:-0.3707571 1125:-0.05825181 1126:0.3766116 1127:0.3125053 1128:0.4348634 1129:0.7473687 1130:-2.298305 1131:2.117088 1132:4.415393 1133:0.0745614 1134:0.01754386 1135:0.872807 1136:0.3289474 1137:-0.0153172 1138:-0.00125265 1139:0.1268585 1140:0.7042431 1141:0.9431592 1142:0.9746572 1143:-0.1582334 1144:3.95257 1145:-0.4527932 1146:0.003101456 1147:0.4921716 1148:0.4558946 1149:0.4890701 1150:0.9449648 1151:-2.661846 1152:2.51388 1153:5.175725 1154:0.05701754 1155:0.01754386 1156:0.3552631 1157:0.8552632 1158:-0.006851865 1159:-0.00147978 1160:0.1611032 1161:0.7055654 1162:0.9677065 1163:0.9885304 1164:-0.2150168 1165:4.042989 1166:-0.4319888 1167:-0.03412449 1168:0.5071103 1169:0.3978643 1170:0.5412348 1171:0.9390991 1172:-2.693517 1173:2.562107 1174:5.255624 1175:0.07894737 1176:0.01315789 1177:0.3552631 1178:0.8552632 1179:-8.707922e-05 1180:-0.001407055 1181:0.1596137 1182:0.6329897 1183:0.7843944 1184:0.8904891 1185:-0.1115608 1186:4.448415 1187:-0.4268104 1188:-0.03166557 1189:0.4639984 1190:0.3951449 1191:0.495664 1192:0.8908089 1193:-2.380864 1194:2.239726 1195:4.62059 1196:0.05263158 1197:0.01315789 1198:0.3552631 1199:0.8552632 1200:0.004943918 1201:-0.001538161 1202:0.1795252 1203:0.6267385 1204:0.7297007 1205:0.8602033 1206:-0.156199 1207:4.344219 1208:-0.4622011 1209:0.001223409 1210:0.4447482 1211:0.4634245 1212:0.4435247 1213:0.9069492 1214:-2.410236 1215:2.272628 1216:4.682863 1217:0.06140351 1218:0.01315789 1219:0.8026316 1220:0.8552632 1221:0.0001080916 1222:-2.043444e-05 1223:0.0024274 1224:0.03217391 1225:0.002153533 1226:0.04642566 1227:-0.5069396 1228:5.107577 1229:-0.01533417 1230:-0.002194267 1231:0.02648519 1232:0.0131399 1233:0.02867945 1234:0.04181936 1235:-0.1315053 1236:0.1197181 1237:0.2512233 1238:0.04824561 1239:0.01315789 1240:0.7938597 1241:0.3859649 1242:-0.001127844 1243:3.106938e-05 1244:-0.004654218 1245:0.04296887 1246:0.003201868 1247:0.05662199 1248:-0.03814089 1249:3.709636 1250:-0.03099528 1251:-0.004278079 1252:0.03291677 1253:0.0267172 1254:0.03719484 1255:0.06391204 1256:-0.1470274 1257:0.1234877 1258:0.2705152 1259:0.05701754 1260:0.00877193 1261:0.1535088 1262:0.131579 1263:6.399671e-05 1264:-2.175893e-05 1265:0.002533635 1266:0.03439461 1267:0.001983111 1268:0.04455516 1269:-0.4606478 1270:3.35266 1271:-0.02108807 1272:0.003705946 1273:0.02940622 1274:0.02479402 1275:0.02570027 1276:0.05049429 1277:-0.1040292 1278:0.09497835 1279:0.1990075 1280:0.1622807 1281:0.02631579 1282:0.6096491 1283:0.5438597 1284:0.0008515798 1285:-1.014431e-05 1286:0.00200296 1287:0.03197374 1288:0.001600916 1289:0.04001701 1290:0.2098892 1291:3.005757 1292:-0.02691463 1293:0.001889121 1294:0.02661654 1295:0.02880375 1296:0.02472742 1297:0.05353116 1298:-0.08345401 1299:0.0972825 1300:0.1807365 1301:0.04385965 1302:0.00877193 1303:0.9473684 1304:0.03947368 1305:0.0003119358 1306:6.723724e-07 1307:0.0002356216 1308:0.02680047 1309:0.001126961 1310:0.03357027 1311:0.1585608 1312:2.688925 1313:-0.02153254 1314:-0.0009224713 1315:0.02448828 1316:0.02061007 1317:0.02541075 1318:0.04602082 1319:-0.06959707 1320:0.07061337 1321:0.1402104 1322:0.1096491 1323:0.00877193 1324:0.2368421 1325:0.6359649 1326:0.0009209008 1327:7.634003e-06 1328:5.444147e-05 1329:0.03046884 1330:0.001481141 1331:0.03848887 1332:0.1332968 1333:2.957689 1334:-0.02412225 1335:0.001019454 1336:0.02415539 1337:0.0251417 1338:0.02313593 1339:0.04827764 1340:-0.08411746 1341:0.09123199 1342:0.1753494 1343:0.1052632 1344:0.01754386 1345:0.3201754 1346:0.5570176 1347:-1.076648e-05 1348:-7.401049e-06 1349:0.0008292525 1350:0.01723986 1351:0.0004808883 1352:0.02193457 1353:0.1462822 1354:3.001024 1355:-0.01374652 1356:-0.0002367139 1357:0.01450589 1358:0.01350981 1359:0.0147426 1360:0.02825241 1361:-0.04638661 1362:0.05094661 1363:0.09733322 1364:0.07017544 1365:0.004385965 1366:0.4210526 1367:0.5570176 1368:-9.142202e-05 1369:-4.040768e-07 1370:-4.55593e-05 1371:0.01354189 1372:0.000305395 1373:0.01747557 1374:0.003887582 1375:3.468293 1376:-0.01141581 1377:-0.0007360101 1378:0.0110014 1379:0.0106798 1380:0.01173741 1381:0.02241721 1382:-0.04565881 1383:0.04146386 1384:0.08712266 1385:0.07894737 1386:0.01315789 1387:0.03947368 1388:0.5 1389:0.9333057 1390:-0.02141381 1391:3.363773 1392:3.347634 1393:33.85752 1394:5.986979 1395:2.769884 1396:17.17682 1397:-0.5763687 1398:1 1399:0.5914078 1400:0.5763687 1401:0.5914078 1402:1.167776 1403:-13.23894 1404:24.01716 1405:37.2561 1406:0.00877193 1407:0.00877193 1408:0.4912281 1409:0.5175439 1410:0.0001760287 1411:-7.927085e-05 1412:0.00917327 1413:0.06392734 1414:0.007181861 1415:0.08490632 1416:0.1120588 1417:3.16605 1418:-0.04980687 1419:-0.003384744 1420:0.0524997 1421:0.04642213 1422:0.05588444 1423:0.1023066 1424:-0.1871361 1425:0.2056065 1426:0.3927426 1427:0.1140351 1428:0.03508772 1429:0.3703704 1430:1 1431:168.4966 1432:0.3444144 1433:145.4209 1434:53.68206 1435:4653.437 1436:69.52397 1437:0.3896225 1438:3.457666 1439:122.8382 1440:176.3731 1441:213.1361 1442:53.53484 1443:36.76308 1444:90.29792 1445:372.5777 1446:0.02962963 1447:0.02222222 1448:0.01680672 1449:0.1680672 1450:0.01768429 1451:-7.590823e-05 1452:0.02216288 1453:0.0125303 1454:0.0002667639 1455:0.01653975 1456:1.675267 1457:6.334961 1458:0.005646904 1459:0.01087316 1460:0.02640316 1461:0.005226259 1462:0.01553 1463:0.02075626 1464:0.08013838 1465:0.02521008 1466:0.02521008 1467:0.5438597 1468:0.7807018 1469:0.01754529 1470:-6.869175e-06 1471:0.01793339 1472:0.01492823 1473:0.0003667754 1474:0.01915272 1475:1.369407 1476:3.83607 1477:0.003771711 1478:0.009587998 1479:0.02384509 1480:0.005816287 1481:0.01425709 1482:0.02007338 1483:0.07187296 1484:0.09649123 1485:0.02631579 1486:0.3565891 1487:0.3333333 1488:0.1751824 1489:-0.0004739244 1490:0.2055135 1491:0.1135945 1492:0.02090127 1493:0.1456459 1494:1.264722 1495:4.366758 1496:0.0583582 1497:0.1334993 1498:0.2398079 1499:0.07514112 1500:0.1063086 1501:0.1814497 1502:0.649583 1503:0.03875969 1504:0.01550388 1505:0.3876404 1506:0.4213483 1507:2.804432e-09 1508:-0.04840163 1509:4.283544 1510:30.58605 1511:1418.425 1512:37.74401 1513:0.03263317 1514:2.70715 1515:-24.83747 1516:-0.7487618 1517:26.68192 1518:24.0887 1519:27.43069 1520:51.51939 1521:79.62447 1522:0.1011236 1523:0.01123596 1524:0.01197605 1525:0.02994012 1526:2.718681e-11 1527:-5.422281e-06 1528:0.0004500494 1529:0.005125377 1530:4.795548e-05 1531:0.006929921 1532:0.1694704 1533:4.813992 1534:-0.004664871 1535:-0.0004421711 1536:0.004285738 1537:0.0042227 1538:0.004727909 1539:0.008950609 1540:0.01805544 1541:0.02994012 1542:0.01197605 1543:0.7730061 1544:0.791411 1545:2.879137e-12 1546:-5.542428e-06 1547:0.0004489367 1548:0.005275516 1549:5.639369e-05 1550:0.0075141 1551:-0.01163708 1552:3.590647 1553:-0.003306117 1554:-0.0001223743 1555:0.003330951 1556:0.003183743 1557:0.003453325 1558:0.006637068 1559:0.01781161 1560:0.09815951 1561:0.04907975 1562:0.5142857 1563:0.4057143 1564:1.909211e-10 1565:-5.060127e-05 1566:0.00440231 1567:0.0495144 1568:0.004283437 1569:0.06549787 1570:0.2685508 1571:3.478787 1572:-0.0387537 1573:-0.006179847 1574:0.04059803 1575:0.03257385 1576:0.04677787 1577:0.07935172 1578:0.1615071 1579:0.08 1580:0.01142857 1581:16 1582:2.3 
0.00093010748735903 2.169273223629611e-05 1:0.4841629 2:0.2171946 3:1.28186 4:0.005551271 5:0.67122 6:0.8198413 7:0.9729607 8:1.048038 9:0.7768031 10:2.534386 11:0.379311 12:0.8737606 13:2.125919 14:0.4944496 15:1.252158 16:1.746608 17:0.1055768 18:3.750507 19:3.644931 20:0.04072398 21:0.009049774 22:0.719457 23:0.05429864 24:-23.11626 25:0.2565414 26:-51.33582 27:19.62216 28:525.6025 29:28.16848 30:-0.2537339 31:1.508745 32:-53.64116 33:-14.87145 34:3.234544 35:38.76971 36:18.106 37:56.8757 38:-69.17963 39:14.5776 40:83.75723 41:0.3936652 42:0.158371 43:0.6470588 44:0.8144796 45:-13.35774 46:-0.01365292 47:-11.85592 48:12.22001 49:304.3514 50:17.4674 51:-1.0576 52:4.386421 53:-17.4556 54:-13.44084 55:-3.442452 56:4.014768 57:9.998385 58:14.01315 59:-60.87292 60:13.16601 61:74.03893 62:0.280543 63:0.1357466 64:0.3393665 65:0.6877828 66:-1.356695 67:-0.08075725 68:7.526602 69:10.3654 70:169.8802 71:14.01512 72:-0.4754963 73:2.304191 74:-12.2038 75:2.739641 76:8.533438 77:14.94344 78:5.793797 79:20.73724 80:-32.20166 81:22.43377 82:54.63543 83:0.2036199 84:0.02714932 85:0.5113122 86:0.7013575 87:3.335861 88:-0.04874028 89:8.697291 90:8.772198 91:126.4949 92:11.66892 93:-0.5823675 94:2.864342 95:-3.511058 96:5.238471 97:11.62604 98:8.749529 99:6.387566 100:15.13709 101:-24.46938 102:25.16418 103:49.63355 104:0.07692308 105:0.009049774 106:0.9095023 107:0.5701358 108:-4.342718 109:-0.05091662 110:1.258111 111:12.19001 112:208.0706 113:14.78587 114:-0.4785042 115:1.928692 116:-17.23282 117:-1.04603 118:7.741851 119:16.18679 120:8.787881 121:24.97467 122:-34.3587 123:18.58486 124:52.94355 125:0.3348416 126:0.04524887 127:0.1176471 128:0.4977376 129:-0.6781984 130:-0.0425817 131:4.005788 132:14.14109 133:313.2579 134:17.90636 135:-0.8851053 136:2.838902 137:-12.16417 138:4.726315 139:12.08529 140:16.89048 141:7.358978 142:24.24946 143:-43.24359 144:22.97473 145:66.21832 146:0.4932127 147:0.1447964 148:0.1900453 149:0.4751131 150:-7.498971 151:-0.03832736 152:-3.282961 153:14.96924 154:350.7155 155:18.88635 156:-1.062435 157:3.280174 158:-19.21914 159:-1.281276 160:6.379142 161:17.93786 162:7.660418 163:25.59828 164:-57.76945 165:17.73535 166:75.5048 167:0.520362 168:0.09049774 169:0.9954751 170:0.6696833 171:-0.8209713 172:-0.06320719 173:6.131819 174:12.81108 175:243.7475 176:16.12475 177:-0.4676202 178:2.244675 179:-12.7885 180:2.470873 181:12.42373 182:15.25937 183:9.952856 184:25.21223 185:-37.62212 186:24.87972 187:62.50185 188:0.1538462 189:0.004524887 190:0.8461539 191:0.4570136 192:-4.685313 193:-0.07315988 194:3.362274 195:15.01287 196:374.626 197:19.91005 198:-0.9982769 199:3.512947 200:-17.17278 201:0.7540295 202:9.993364 203:17.92681 204:9.239335 205:27.16615 206:-62.86686 207:24.31275 208:87.17961 209:0.4705882 210:0.09049774 211:0.8506787 212:0.5022625 213:0.531719 214:-0.04095045 215:5.036269 216:13.04286 217:247.5757 218:15.94995 219:-0.4292422 220:2.348746 221:-12.20125 222:4.937699 223:11.49338 224:17.13895 225:6.555676 226:23.69463 227:-34.91592 228:31.11669 229:66.03261 230:0.1855204 231:0.03167421 232:0.2488688 233:0.6380091 234:-2.104382 235:-0.0554849 236:3.998957 237:10.12181 238:156.4139 239:12.99783 240:-0.5110408 241:2.304412 242:-10.73301 243:0.6992707 244:8.61432 245:11.43228 246:7.915049 247:19.34733 248:-29.93405 249:18.22334 250:48.15739 251:0.3529412 252:0.09049774 253:0.5475113 254:0.5701358 255:0.7675577 256:-0.01457828 257:2.371169 258:9.469375 259:140.8639 260:11.90499 261:-0.4590227 262:2.56554 263:-7.082862 264:2.307765 265:8.882062 266:9.390627 267:6.574297 268:15.96492 269:-27.28831 270:22.64436 271:49.93266 272:0.2171946 273:0.04072398 274:0.2126697 275:0.6470588 276:-7.381665 277:-0.1016493 278:3.799757 279:11.62448 280:201.4363 281:15.60416 282:-0.8119724 283:2.539937 284:-19.20304 285:-1.392222 286:4.985137 287:17.81082 288:6.377358 289:24.18818 290:-45.57129 291:13.78467 292:59.35596 293:0.4524887 294:0.08597285 295:0.6923077 296:0.3393665 297:2.229034 298:0.0402915 299:-2.203031 300:7.385655 301:83.78028 302:9.507236 303:-0.5870754 304:3.409407 305:-3.501433 306:3.88734 307:7.846493 308:7.388773 309:3.959153 310:11.34793 311:-23.2291 312:20.93601 313:44.16511 314:0.158371 315:0.05429864 316:0.2352941 317:0.4660634 318:-11.63261 319:-0.05444313 320:-5.643865 321:11.23582 322:199.1567 323:14.53342 324:-0.9122934 325:2.988319 326:-20.25277 327:-6.980766 328:-0.2686209 329:13.27201 330:6.712145 331:19.98415 332:-50.99182 333:7.121871 334:58.11369 335:0.4751131 336:0.07692308 337:0.4705882 338:1 339:-2.560225 340:0.02622258 341:-5.444709 342:3.633081 343:16.7745 344:4.424153 345:0.1664803 346:1.486083 347:-6.561551 348:-3.672389 349:1.535312 350:2.889162 351:5.207701 352:8.096863 353:-9.04381 354:4.507425 355:13.55124 356:0.2895928 357:0.1493213 358:0.3076923 359:0.05429864 360:-2.762419 361:0.0375105 362:-6.888575 363:4.093744 364:20.21548 365:5.093341 366:0.03098302 367:1.452463 368:-8.277455 369:-3.271682 370:2.689129 371:5.005774 372:5.960811 373:10.96658 374:-10.061 375:4.596394 376:14.65739 377:0.361991 378:0.1900453 379:0.3755656 380:0.05429864 381:-2.868501 382:0.03937279 383:-7.199508 384:3.435805 385:15.54157 386:4.6745 387:0.06687994 388:1.728415 389:-7.89348 390:-2.608042 391:0.7050294 392:5.285439 393:3.313071 394:8.59851 395:-9.764764 396:5.076514 397:14.84128 398:0.2217195 399:0.1131222 400:0.6923077 401:0.04977376 402:-2.441188 403:0.04213803 404:-7.076371 405:2.907938 406:12.21669 407:4.409472 408:-0.03278624 409:1.81256 410:-6.821167 411:-1.436373 412:0.9147953 413:5.384794 414:2.351168 415:7.735962 416:-9.533151 417:5.693348 418:15.2265 419:0.1402715 420:0.07239819 421:0.7239819 422:0.04977376 423:-1.739209 424:0.0403906 425:-6.182174 426:2.936806 427:12.54531 428:4.380082 429:-0.1648291 430:1.552697 431:-6.21886 432:-0.6193575 433:2.019895 434:5.599503 435:2.639253 436:8.238755 437:-8.672153 438:5.018144 439:13.6903 440:0.280543 441:0.08144797 442:0.8190045 443:0.05429864 444:-1.195948 445:0.04086373 446:-5.690958 447:2.871392 448:11.44992 449:4.271555 450:-0.1795355 451:1.570749 452:-5.643595 453:-0.07821683 454:2.662479 455:5.565378 456:2.740695 457:8.306074 458:-8.182951 459:5.480578 460:13.66353 461:0.3076923 462:0.04977376 463:0.8144796 464:0.04977376 465:-0.744314 466:0.03813195 467:-4.938828 468:3.197522 469:13.75085 470:4.434954 471:0.02086201 472:1.652944 473:-5.019392 474:-0.5353796 475:3.343698 476:4.484012 477:3.879077 478:8.363089 479:-7.779869 480:7.772306 481:15.55217 482:0.1402715 483:0.03167421 484:0.8099548 485:0.04977376 486:-0.533917 487:0.03548935 488:-4.437746 489:2.968801 490:12.09069 491:4.149317 492:0.1175848 493:1.819611 494:-4.516585 495:-0.8586623 496:2.99633 497:3.657923 498:3.854992 499:7.512915 500:-6.846488 501:7.358191 502:14.20468 503:0.158371 504:0.07239819 505:0.8190045 506:0.0361991 507:0.2765336 508:0.001780029 509:0.0807304 510:0.1241098 511:0.02815714 512:0.2026153 513:1.229201 514:3.920189 515:0.1238333 516:0.2157134 517:0.3816754 518:0.09188019 519:0.165962 520:0.2578421 521:0.05788105 522:0.8829206 523:0.8250395 524:0.05429864 525:0.02714932 526:0.7692308 527:0.4524887 528:0.6267746 529:0.000240253 530:0.6003468 531:0.1710768 532:0.04467724 533:0.2119249 534:0.096467 535:2.563775 536:0.4382831 537:0.6432188 538:0.7499804 539:0.2049357 540:0.1067616 541:0.3116973 542:0.2187645 543:1.082996 544:0.8642318 545:0.09954751 546:0.06787331 547:0.8235294 548:0.9230769 549:1.041025 550:9.305338e-05 551:1.030789 552:0.139986 553:0.03429114 554:0.1852738 555:0.52754 556:3.331527 557:0.9197313 558:1.035791 559:1.121084 560:0.1160596 561:0.08529317 562:0.2013528 563:0.7065043 564:1.552905 565:0.8464005 566:0.07239819 567:0.02714932 568:0.8280543 569:0.6696833 570:1.285975 571:-0.0001428659 572:1.30169 573:0.1399258 574:0.03570873 575:0.1891872 576:0.1437979 577:3.17446 578:1.177732 579:1.31041 580:1.380599 581:0.132678 582:0.07018924 583:0.2028673 584:0.8944184 585:1.739604 586:0.845186 587:0.08597285 588:0.05882353 589:0.8054299 590:0.9049774 591:1.661543 592:-0.0002622556 593:1.690391 594:0.0979061 595:0.01850482 596:0.1370575 597:0.04135179 598:3.694609 599:1.588589 600:1.664286 601:1.723407 602:0.0756973 603:0.05912054 604:0.1348178 605:1.318289 606:1.986723 607:0.6684341 608:0.1085973 609:0.05429864 610:0.800905 611:0.8959276 612:1.838892 613:-0.0004989782 614:1.89378 615:0.1022246 616:0.01931876 617:0.1425907 618:-0.6040077 619:3.050015 620:1.757863 621:1.872513 622:1.913723 623:0.1146499 624:0.04121017 625:0.1558601 626:1.487056 627:2.098337 628:0.6112809 629:0.158371 630:0.08144797 631:0.3484163 632:0.4479638 633:2.240205 634:4.914748e-05 635:2.234798 636:0.04069543 637:0.002835193 638:0.05333878 639:-0.2456786 640:3.498747 641:2.210516 642:2.240258 643:2.273402 644:0.02974153 645:0.033144 646:0.06288552 647:2.098006 648:2.357246 649:0.2592402 650:0.1945701 651:0.04977376 652:0.3393665 653:0.6877828 654:2.311879 655:-7.410138e-05 656:2.32003 657:0.02665182 658:0.001258772 659:0.03579273 660:-0.7567825 661:4.286116 662:2.292372 663:2.316867 664:2.332648 665:0.0244956 666:0.01578093 667:0.04027653 668:2.198956 669:2.383054 670:0.1840982 671:0.2036199 672:0.05882353 673:0.2941177 674:1 675:170.2403 676:1.172217 677:41.29642 678:73.69561 679:6960.316 680:112.0396 681:-0.7001064 682:1.736586 683:1 684:228.7999 685:262.3164 686:228.7999 687:33.51649 688:262.3164 689:1 690:274.4049 691:274.4049 692:0.5339367 693:0.438914 694:0.3031674 695:0.760181 696:0.521063 697:-0.0003062149 698:0.5547467 699:0.2019952 700:0.05332749 701:0.2317523 702:-0.3633973 703:1.961655 704:0.3284644 705:0.5737064 706:0.7467164 707:0.245242 708:0.1730099 709:0.418252 710:1 711:0.8246807 712:0.8246807 713:0.4298643 714:0.2488688 715:0.6334842 716:0.5158371 717:0.002913535 718:-0.0002098391 719:0.02599584 720:0.1677079 721:0.05980596 722:0.2449187 723:0.2667767 724:4.484548 725:-0.10417 726:-0.006476712 727:0.07260785 728:0.09769332 729:0.07908457 730:0.1767779 731:-0.6067156 732:0.6771441 733:1.28386 734:0.08144797 735:0.03167421 736:0.2760181 737:0.4027149 738:0.09369174 739:-0.008373721 740:1.014801 741:3.095731 742:21.24233 743:4.639797 744:0.424748 745:5.575593 746:-2.175715 747:0.07394359 748:1.591334 749:2.249659 750:1.51739 751:3.767049 752:-12.69044 753:15.33404 754:28.02448 755:0.04072398 756:0.02262443 757:0.8642534 758:0.7556561 759:0.01392225 760:9.068378e-06 761:0.01292473 762:2.185999 763:10.73195 764:3.275966 765:-0.2119517 766:5.601001 767:-1.283516 768:0.01877194 769:1.213002 770:1.302288 771:1.194231 772:2.496518 773:-10.35446 774:8.837257 775:19.19172 776:0.09502263 777:0.03167421 778:0.9049774 779:0.9638009 780:-0.06778461 781:-0.0006291251 782:0.001419148 783:2.607399 784:12.76042 785:3.572398 786:-0.2127191 787:4.09586 788:-1.754128 789:-0.02643866 790:1.725507 791:1.727689 792:1.751945 793:3.479634 794:-10.18312 795:8.49817 796:18.68129 797:0.09954751 798:0.02262443 799:0.9638009 800:0.5565611 801:0.09085552 802:0.001870253 803:-0.1148723 804:2.28345 805:9.152399 806:3.027645 807:-0.327399 808:3.414292 809:-1.405238 810:0.04019461 811:1.843746 812:1.445433 813:1.803552 814:3.248985 815:-7.971314 816:6.087841 817:14.05915 818:0.1357466 819:0.01357466 820:0.5791855 821:0.6108598 822:0.01483376 823:0.002989753 824:-0.3140391 825:2.465789 826:11.0905 827:3.335698 828:-0.2044706 829:3.935601 830:-1.642501 831:0.0607995 832:1.709612 833:1.703301 834:1.648813 835:3.352113 836:-9.303632 837:7.401055 838:16.70469 839:0.06787331 840:0.009049774 841:0.5113122 842:0.5475113 843:-0.05140684 844:-0.0004503446 845:-0.001868938 846:3.351903 847:22.51787 848:4.745387 849:-0.3784785 850:4.747509 851:-1.610314 852:0.6857327 853:2.479655 854:2.296047 855:1.793922 856:4.089969 857:-12.19943 858:13.21446 859:25.41389 860:0.01809955 861:0.009049774 862:0.7511312 863:0.5475113 864:0.05312436 865:0.00303753 866:-0.2810039 867:3.602707 868:23.31976 869:4.83294 870:-0.1305727 871:3.771627 872:-2.66444 873:-0.2385627 874:2.725473 875:2.425877 876:2.964036 877:5.389913 878:-12.53202 879:12.1327 880:24.66472 881:0.07239819 882:0.01357466 883:0.5067874 884:0.6289593 885:0.1089676 886:0.005030057 887:-0.4443387 888:2.835138 889:13.75612 890:3.722781 891:-0.2926998 892:3.46748 893:-1.892164 894:-0.06807566 895:2.692054 896:1.824088 897:2.760129 898:4.584218 899:-9.814154 900:8.123456 901:17.93761 902:0.09049774 903:0.009049774 904:0.6742082 905:0.4434389 906:0.01512604 907:0.004735679 908:-0.5057987 909:3.25749 910:21.26348 911:4.621121 912:0.01945656 913:5.111032 914:-2.245266 915:0.2462761 916:2.20393 917:2.491542 918:1.957654 919:4.449197 920:-12.75078 921:13.75546 922:26.50624 923:0.02714932 924:0.01357466 925:0.6787331 926:0.280543 927:0.05837416 928:0.002252957 929:-0.1894511 930:2.718268 931:11.90337 932:3.453118 933:0.1466091 934:3.10678 935:-2.140076 936:0.04357996 937:2.206555 938:2.183656 939:2.162975 940:4.346632 941:-7.469882 942:8.840591 943:16.31047 944:0.04977376 945:0.01809955 946:0.4977376 947:0.6289593 948:0.06866766 949:0.002217974 950:-0.1753094 951:2.210741 952:8.34833 953:2.892811 954:-0.1523933 955:3.976087 956:-1.633295 957:-0.1485956 958:1.832628 959:1.4847 960:1.981223 961:3.465923 962:-7.756726 963:7.303604 964:15.06033 965:0.09502263 966:0.03167421 967:0.5837104 968:0.5565611 969:0.05836632 970:0.002805948 971:-0.250288 972:2.542284 973:11.33308 974:3.37122 975:-0.4727945 976:4.736404 977:-2.066225 978:0.1626306 979:2.002742 980:2.228855 981:1.840111 982:4.068966 983:-10.29357 984:7.682662 985:17.97623 986:0.1402715 987:0.02262443 988:0.4027149 989:0.8642534 990:0.01241071 991:0.003853842 992:-0.4115119 993:2.520365 994:12.70016 995:3.5722 996:-0.3382963 997:4.158821 998:-1.570875 999:0.1888094 1000:1.642864 1001:1.759685 1002:1.454054 1003:3.213739 1004:-9.02667 1005:8.40947 1006:17.43614 1007:0.1040724 1008:0.02714932 1009:0.6787331 1010:0.2895928 1011:0.0528252 1012:0.002034195 1013:-0.1709363 1014:1.987559 1015:6.645995 1016:2.581247 1017:0.202985 1018:3.496792 1019:-1.474193 1020:-0.06504498 1021:1.581997 1022:1.409148 1023:1.647042 1024:3.056189 1025:-5.674595 1026:5.773731 1027:11.44833 1028:0.02714932 1029:0.009049774 1030:0.6742082 1031:0.4479638 1032:0.01976527 1033:0.002558715 1034:-0.2616934 1035:2.562199 1036:11.52734 1037:3.399116 1038:-0.4991106 1039:4.088099 1040:-1.836231 1041:0.324771 1042:2.039921 1043:2.161002 1044:1.71515 1045:3.876152 1046:-9.706913 1047:7.945233 1048:17.65215 1049:0.09502263 1050:0.01357466 1051:0.6244344 1052:0.5158371 1053:0.01774799 1054:-0.001213426 1055:0.1512248 1056:0.5087475 1057:0.6646906 1058:0.8189525 1059:0.4102008 1060:5.197224 1061:-0.2295964 1062:-0.0471797 1063:0.208321 1064:0.1824167 1065:0.2555007 1066:0.4379174 1067:-2.112845 1068:2.414333 1069:4.527178 1070:0.08144797 1071:0.0361991 1072:0.5475113 1073:0.4027149 1074:0.01274564 1075:-0.001342359 1076:0.1604051 1077:0.5784037 1078:0.8118322 1079:0.9050779 1080:0.3278213 1081:4.913733 1082:-0.2538994 1083:0.0001268387 1084:0.255295 1085:0.2540262 1086:0.2551681 1087:0.5091944 1088:-2.443055 1089:2.529359 1090:4.972413 1091:0.07692308 1092:0.01357466 1093:0.280543 1094:0.4027149 1095:0.01270174 1096:-0.001249891 1097:0.1501897 1098:0.5678142 1099:0.635078 1100:0.8008972 1101:0.01621017 1102:4.0834 1103:-0.3779087 1104:0.0003020287 1105:0.3442991 1106:0.3782107 1107:0.3439971 1108:0.7222078 1109:-2.007092 1110:2.017671 1111:4.024763 1112:0.07239819 1113:0.02262443 1114:0.2760181 1115:0.4027149 1116:0.01263769 1117:-0.001274589 1118:0.1528424 1119:0.5376343 1120:0.5310439 1121:0.7332503 1122:-0.03350736 1123:4.145756 1124:-0.4100268 1125:0.01810675 1126:0.3986128 1127:0.4281335 1128:0.3805061 1129:0.8086396 1130:-1.861279 1131:1.894197 1132:3.755476 1133:0.06787331 1134:0.01809955 1135:0.5429865 1136:0.5113122 1137:0.01918341 1138:-0.001001092 1139:0.1293036 1140:0.5652601 1141:0.6711538 1142:0.8217254 1143:0.4407968 1144:4.914685 1145:-0.3797283 1146:-0.01699214 1147:0.3307998 1148:0.3627362 1149:0.347792 1150:0.7105282 1151:-1.975043 1152:2.593435 1153:4.568478 1154:0.04524887 1155:0.01809955 1156:0.2760181 1157:0.5113122 1158:0.02344124 1159:-0.001049136 1160:0.1388462 1161:0.5460904 1162:0.6234428 1163:0.7924157 1164:0.4414228 1165:5.04849 1166:-0.3258765 1167:-0.02046043 1168:0.3348972 1169:0.3054161 1170:0.3553576 1171:0.6607738 1172:-1.756866 1173:2.565721 1174:4.322586 1175:0.04977376 1176:0.01809955 1177:0.2760181 1178:0.5158371 1179:0.01405119 1180:-0.001250025 1181:0.1515539 1182:0.4953669 1183:0.5434144 1184:0.7414675 1185:0.2613092 1186:5.07859 1187:-0.1988765 1188:0.005554295 1189:0.2835754 1190:0.2044308 1191:0.2780211 1192:0.4824519 1193:-1.813918 1194:2.285889 1195:4.099807 1196:0.0361991 1197:0.01809955 1198:0.2760181 1199:0.5158371 1200:0.008510152 1201:-0.001319697 1202:0.1536769 1203:0.424704 1204:0.4003033 1205:0.6382723 1206:0.1567633 1207:5.527301 1208:-0.1907418 1209:0.02664943 1210:0.2489067 1211:0.2173913 1212:0.2222573 1213:0.4396486 1214:-1.668541 1215:2.053549 1216:3.72209 1217:0.03167421 1218:0.01357466 1219:0.760181 1220:0.60181 1221:-0.0003241436 1222:-4.023144e-05 1223:0.004101315 1224:0.02392861 1225:0.001117419 1226:0.03352621 1227:0.3250439 1228:4.45293 1229:-0.01703745 1230:-1.337379e-07 1231:0.01379547 1232:0.01703731 1233:0.0137956 1234:0.03083291 1235:-0.0835521 1236:0.08221159 1237:0.1657637 1238:0.0361991 1239:0.009049774 1240:0.7556561 1241:0.438914 1242:0.0003573524 1243:2.867721e-05 1244:-0.002797141 1245:0.0335876 1246:0.002299316 1247:0.04798607 1248:0.1865314 1249:5.763429 1250:-0.01927711 1251:-0.004297966 1252:0.02521333 1253:0.01497915 1254:0.0295113 1255:0.04449045 1256:-0.1277847 1257:0.1385192 1258:0.2663039 1259:0.01357466 1260:0.009049774 1261:0.9638009 1262:0.8371041 1263:0.000596615 1264:1.588982e-05 1265:-0.001151265 1266:0.03141028 1267:0.001778421 1268:0.04218351 1269:-0.2848509 1270:4.136306 1271:-0.02229593 1272:0.001165211 1273:0.02578926 1274:0.02346114 1275:0.02462405 1276:0.04808519 1277:-0.09919098 1278:0.09644415 1279:0.1956351 1280:0.09502263 1281:0.01809955 1282:0.4841629 1283:0.841629 1284:0.0004036786 1285:1.96385e-06 1286:0.0001876551 1287:0.02588872 1288:0.001349519 1289:0.03673602 1290:-0.3734461 1291:4.479046 1292:-0.01567336 1293:0.002901828 1294:0.01815009 1295:0.01857519 1296:0.01524826 1297:0.03382345 1298:-0.1046662 1299:0.09002712 1300:0.1946934 1301:0.1131222 1302:0.04072398 1303:0.7511312 1304:0.6334842 1305:-0.0005996272 1306:-1.346985e-05 1307:0.0008820569 1308:0.02253827 1309:0.0009657353 1310:0.03108816 1311:-0.5630713 1312:5.256233 1313:-0.01494366 1314:0.0009875775 1315:0.0160264 1316:0.01593124 1317:0.01503882 1318:0.03097006 1319:-0.09601242 1320:0.07547503 1321:0.1714875 1322:0.1176471 1323:0.01357466 1324:0.3257919 1325:0.6334842 1326:-0.0007069064 1327:-9.979369e-06 1328:0.0003908241 1329:0.0220308 1330:0.000944349 1331:0.03073686 1332:-0.6574133 1333:4.506605 1334:-0.01236533 1335:-0.0005908012 1336:0.01490682 1337:0.01177453 1338:0.01549762 1339:0.02727215 1340:-0.09630672 1341:0.05912105 1342:0.1554278 1343:0.1312217 1344:0.009049774 1345:0.3303168 1346:0.438914 1347:-0.0003075852 1348:-7.592068e-06 1349:0.0005275423 1350:0.0137932 1351:0.000355913 1352:0.01887187 1353:0.08333368 1354:4.473843 1355:-0.009681272 1356:0.0004390716 1357:0.009999847 1358:0.01012034 1359:0.009560775 1360:0.01968112 1361:-0.04680066 1362:0.04221819 1363:0.08901884 1364:0.03167421 1365:0.009049774 1366:0.4072398 1367:0.6289593 1368:-0.0002519412 1369:-6.623801e-06 1370:0.0004766769 1371:0.009309622 1372:0.0001494149 1373:0.01223084 1374:-0.01812799 1375:3.597727 1376:-0.007057619 1377:0.0009227514 1378:0.006929851 1379:0.007980371 1380:0.006007099 1381:0.01398747 1382:-0.03048193 1383:0.03176117 1384:0.0622431 1385:0.04977376 1386:0.01357466 1387:0.2850679 1388:0.8733032 1389:0.6832349 1390:-0.02327834 1391:3.243852 1392:3.528613 1393:76.41788 1394:8.86698 1395:6.117222 1396:46.95677 1397:-0.2846436 1398:1 1399:1 1400:0.2846436 1401:1 1402:0.2846436 1403:-12.70216 1404:45.76682 1405:58.46898 1406:0.009049774 1407:0.009049774 1408:0.918552 1409:0.7511312 1410:0.0007472224 1411:-5.354649e-05 1412:0.006637336 1413:0.04525703 1414:0.004445979 1415:0.06676563 1416:0.1318066 1417:4.234842 1418:-0.02481588 1419:-0.001655918 1420:0.02599317 1421:0.02315996 1422:0.02764909 1423:0.05080904 1424:-0.1767268 1425:0.1746287 1426:0.3513555 1427:0.09049774 1428:0.0361991 1429:0.4875 1430:0.9875 1431:200.1257 1432:-1.41966 1433:256.2022 1434:50.88774 1435:4086.096 1436:71.83889 1437:-0.7609089 1438:2.254699 1439:160.5352 1440:231.8008 1441:258.4294 1442:71.26556 1443:26.62862 1444:97.89419 1445:281.9702 1446:0.5375 1447:0.2375 1448:0.9589041 1449:0.5205479 1450:0.02402765 1451:0.0005871033 1452:0.002891933 1453:0.021905 1454:0.001154018 1455:0.03615329 1456:3.13728 1457:12.59527 1458:0.007500651 1459:0.0120824 1460:0.0223031 1461:0.004581745 1462:0.0102207 1463:0.01480244 1464:0.1745019 1465:0.04109589 1466:0.04109589 1467:0.9565217 1468:0.3333333 1469:0.01844191 1470:0.0005861116 1471:-0.00148588 1472:0.01871273 1473:0.001030209 1474:0.03415369 1475:3.840565 1476:17.19307 1477:0.005258995 1478:0.00741439 1479:0.0193 1480:0.002155395 1481:0.01188561 1482:0.014041 1483:0.1706427 1484:0.04347826 1485:0.04347826 1486:0.02597403 1487:0.5064935 1488:0.1382502 1489:-3.290945e-05 1490:0.1395008 1491:0.08436768 1492:0.01208924 1493:0.1099535 1494:1.163515 1495:3.403445 1496:0.06006278 1497:0.1055203 1498:0.1709081 1499:0.0454575 1500:0.06538786 1501:0.1108454 1502:0.4118826 1503:0.1298701 1504:0.02597403 1505:0.01980198 1506:0.4653465 1507:-3.422841e-08 1508:-0.1864887 1509:9.324433 1510:26.4811 1511:1171.776 1512:34.66032 1513:0.05496072 1514:2.903392 1515:-17.24319 1516:-2.684625 1517:17.77325 1518:14.55857 1519:20.45788 1520:35.01645 1521:73.33604 1522:0.1782178 1523:0.07920792 1524:0.9368421 1525:0.968421 1526:-5.179333e-12 1527:-2.455233e-05 1528:0.00115396 1529:0.00736681 1530:0.0001942099 1531:0.01395218 1532:0.05773666 1533:9.57668 1534:-0.002968924 1535:-0.0006335223 1536:0.00306205 1537:0.002335402 1538:0.003695572 1539:0.006030974 1540:0.05161736 1541:0.04210526 1542:0.02105263 1543:0.9450549 1544:0.967033 1545:2.262743e-11 1546:-1.80917e-05 1547:0.0008141266 1548:0.00586305 1549:0.0001591065 1550:0.01262269 1551:0.01235324 1552:13.11521 1553:-0.001992866 1554:-0.0002610946 1555:0.001920199 1556:0.001731771 1557:0.002181294 1558:0.003913065 1559:0.0511928 1560:0.03296703 1561:0.02197802 1562:0.02040816 1563:0.3469388 1564:-1.176032e-10 1565:-0.0001357391 1566:0.006583345 1567:0.03412338 1568:0.002230751 1569:0.04738666 1570:0.6425382 1571:3.594939 1572:-0.02425054 1573:-0.005209517 1574:0.01725949 1575:0.01904102 1576:0.022469 1577:0.04151003 1578:0.1147962 1579:0.09183674 1580:0.05102041 1581:6 1582:2.23 
